tree
version=v3
num_class=1
num_tree_per_iteration=1
label_index=0
max_feature_idx=12
objective=binary sigmoid:1
feature_names=category amt transaction_weekday transaction_month transaction_hour gender zip city_pop job age setting age_group distance_from_home
feature_infos=[0:13] [1:15951.040000000001] [0:6] [0:11] [0:23] [0:1] [0:6712] [65:2906700] [0:638] [15:95] [0:1] [0:4] [0.20645065195082871:150.03140402413274]
tree_sizes=2347 2353 2403 2294 2465 2299 2278 2246 2323 2269 2322 2370 2375 2344 2306 2325 2369 2329 2314 2375 2380 2306 2316 2326 2365 2337 2356 2342 2375 2371 2392 2276 2288 2343 2348 2276 2267 2274 2279 2314 2377 2356 2301 2386 2319 2308 2386 2410 2375 2334 2296 2351 2340 2276 2294 2304 2374 2373 2386 2401 2360 2330 2395 2414 2405 2414 2398 2295 2393 2371 2358 2260 2319 2224 2357 2394 2358 2355 2327 2372 2360 2271 2347 2360 2280 2234 2376 2390 2397 2397 2386 2426

Tree=0
num_leaves=20
num_cat=0
split_feature=0 9 0 0 11 0 9 0 9 0 0 0 0 0 5 9 5 9 5
split_gain=4.95514e+07 2.66486e+07 1.92866e+07 5.66784e+07 7.92832e+06 7.1978e+06 7.017e+06 5.5061e+06 5.98111e+06 5.41656e+06 5.77245e+06 9.29803e+06 7.77479e+06 7.6839e+06 6.84139e+06 4.38171e+06 3.83148e+06 4.15804e+06 3.77393e+06
threshold=7.5000000000000009 49.500000000000007 4.5000000000000009 3.5000000000000004 2.5000000000000004 6.5000000000000009 49.500000000000007 1.5000000000000002 49.500000000000007 12.500000000000002 11.500000000000002 9.5000000000000018 8.5000000000000018 10.500000000000002 1.0000000180025095e-35 24.500000000000004 1.0000000180025095e-35 49.500000000000007 1.0000000180025095e-35
decision_type=2 2 2 2 2 2 2 2 2 2 2 2 2 2 2 2 2 2 2
left_child=2 9 3 7 16 18 -7 -1 -9 10 11 12 -2 -13 15 -15 17 -5 -4
right_child=1 -3 5 4 -6 6 -8 8 -10 -11 -12 13 -14 14 -16 -17 -18 -19 -20
leaf_value=0.78062150380103468 12.679103161592492 19.383173778091233 2.0884949511320787 5.2582886104548781 20.310837389375443 18.167678279065385 0.27026673722552808 3.0165946167459214 10.66359693791968 30.994257338271353 6.1303705334913499 30.994257338271353 2.3373931613911845 18.628818421960062 18.558344768048926 5.2705271887997096 15.770976886936976 19.720192471546397 -3.9961686295433863
leaf_weight=16886.058112219907 6331.3910035314038 23976.953079100698 9531.6913621146232 3719.8678231015801 10537.749414660037 1799.8096271618269 1707.6362819927745 11089.025179204065 6483.2819058778696 517.31397414207458 9288.5559912007302 1197.5389788150787 5377.5040498152375 1324.7568846875802 6321.9648072761483 3798.4927318007685 6757.7683037859388 1011.4719375041313 7125.4063997925259
leaf_count=2554956 584203 1414841 1380347 480196 573314 117058 262699 1554812 663051 724 1158865 1676 772111 83130 398921 490115 519878 57994 1246988
internal_value=-5.19259 14.2723 6.52936 8.42488 16.3488 1.21959 9.45414 3.35964 5.83795 10.6847 10.3724 11.9904 7.9295 15.7514 14.1565 8.72468 12.7149 8.34997 -0.514341
internal_weight=0 58134.5 76649.8 56485.2 22026.9 20164.5 3507.45 34458.4 17572.3 34157.5 33640.2 24351.6 11708.9 12642.8 11445.2 5123.25 11489.1 4731.34 16657.1
internal_count=14315879 4904586 9411293 6404201 1631382 3007092 379757 4772819 2217863 3489745 3489021 2330156 1356314 973842 972166 573245 1058068 538190 2627335
is_linear=0
shrinkage=1


Tree=1
num_leaves=20
num_cat=0
split_feature=0 9 9 4 1 5 3 3 1 7 4 1 1 1 3 1 9 3 3
split_gain=1.15585e+09 2.911e+09 6.33551e+13 1.55032e+14 1.80856e+08 2.04884e+08 3.97525e+08 3.66804e+09 2.63442e+10 3.3315e+09 7.77065e+10 1.71835e+13 1.49366e+08 6.30389e+08 9.61225e+07 1.11659e+08 5.78383e+07 7.22075e+07 3.67753e+09
threshold=10.500000000000002 48.500000000000007 49.500000000000007 11.500000000000002 309.30500000000006 1.0000000180025095e-35 8.5000000000000018 10.500000000000002 7.4450000000000012 2635.0000000000005 21.500000000000004 7.5950000000000006 23.155000000000005 112.51500000000001 9.5000000000000018 282.90500000000003 24.500000000000004 8.5000000000000018 10.500000000000002
decision_type=2 2 2 2 2 2 2 2 2 2 2 2 2 2 2 2 2 2 2
left_child=-1 4 -3 -4 5 16 -7 8 -8 14 11 -11 -12 -14 15 -10 17 -2 -19
right_child=1 2 3 -5 -6 6 7 -9 9 10 12 -13 13 -15 -16 -17 -18 18 -20
leaf_value=-1.5476062441698113 -84.291211430263274 -57.687743725303918 -52364313.935545996 0.19999999934638937 -5.3748668372246025 -86.722734870188063 -63671.033502967657 -160.06749618431655 -5631.3720866534104 -1063.5805450671303 -465.87682820720204 -22756844.403851885 -11286.477032322047 -709.40779887101326 -142.96763179994326 0.20043514475388588 -51.922376557898694 -10441.242948255129 -110.1387868621955
leaf_weight=1103197.3860778348 161.63491546078288 230.56741801954598 0.0031858299567389947 0.0077953852269363466 1853.8710046444749 799.78216117199577 0.28241639190650403 241.08379055425837 0.28169752013586169 0.28163692356736786 4.5061198721789113 0.0013336471199220648 0.28176582851246479 1.1265371069048971 12.036203703788782 0.28162387013435364 3806.5539810702385 1.4087324500657263 63.660047139425686
leaf_count=11334305 68488 67100 834119 15700 62380 348502 89919 193245 7937 1499 10568 151759 15906 4007 8623 1 993120 73568 35133
internal_value=0 -82.0665 -781.186 -1.51917e+07 -58.8622 -78.331 -156.579 -371.33 -3040.81 -2129.86 -5926.32 -108312 -1027.76 -2825.61 -262.476 -2815.95 -57.7672 -155.907 -333.806
internal_weight=0 7177.65 230.578 0.0109812 6947.07 5093.2 1059.95 260.163 19.0793 18.7969 6.19739 0.282971 5.91442 1.4083 12.5995 0.563321 4033.26 226.704 65.0688
internal_count=14315879 2981574 916919 849819 2064655 2002275 831966 483464 290219 200300 183739 153258 30481 19913 16561 7938 1170309 177189 108701
is_linear=0
shrinkage=0.2


Tree=2
num_leaves=20
num_cat=0
split_feature=4 0 6 0 9 4 3 3 9 0 3 5 9 9 4 3 0 3 0
split_gain=1.12413e+07 1.2697e+07 2.63886e+09 6.87674e+10 4.86203e+11 5.46762e+09 8.3977e+08 1.53883e+09 6.72373e+08 4.55375e+11 5.15584e+08 4.62701e+08 4.26099e+12 1.78818e+13 2.69184e+12 2.35033e+12 7.80997e+11 4.25985e+11 3.3367e+11
threshold=11.500000000000002 3.5000000000000004 6201.5000000000009 7.5000000000000009 25.500000000000004 3.5000000000000004 3.5000000000000004 6.5000000000000009 24.500000000000004 7.5000000000000009 4.5000000000000009 1.0000000180025095e-35 53.500000000000007 55.500000000000007 3.5000000000000004 5.5000000000000009 7.5000000000000009 5.5000000000000009 7.5000000000000009
decision_type=2 2 2 2 2 2 2 2 2 2 2 2 2 2 2 2 2 2 2
left_child=1 -1 8 4 -4 6 -6 10 9 -3 -8 -10 18 -14 16 -16 17 -15 -13
right_child=-2 2 3 -5 5 -7 7 -9 11 -11 -12 12 13 14 15 -17 -18 -19 -20
leaf_value=-0.75923258260551263 -0.2499159161929374 -3568870.3457006426 -4073558.1758172461 -1531.5499412307772 0.20000013464759961 -252748.89879776855 -79410.644934919532 -28804.832098151535 -1.3372132231963849 0.20000293540781847 -200778.61126931626 -136145.27948492076 -218951.16053718404 -7080848.2529519023 -22521134.869441688 -11400107.749390842 -11140855.862424098 -1930069.488733599 -16.429754062640679
leaf_weight=501625.01711939555 1117050.6943768726 0.0014322178321880532 0.001312022449381999 1.099918412961415 0.0049281764877378001 0.010297959663944312 0.0019972083362631565 0.0066932750207797653 179876.23037752742 0.9689485477283597 0.004682765093150465 0.72041760979800429 0.042014811433431443 0.001655677304933433 0.0010446809228072951 0.0027909736179116962 0.0012420948777069896 0.0010492885444488564 2916.0368685119556
leaf_count=2904856 7667897 26912 27939 8937 57 13033 810 1034 2018459 509 4719 495306 80810 59961 131455 353315 172816 11185 335869
internal_value=0 -1.27924 -2.70625 -9668.34 -308879 -136171 -70573.5 -96580.7 -2.64651 -5267.22 -164491 -2.61856 -81.6379 -1.85011e+06 -1.06559e+07 -1.4429e+07 -6.9892e+06 -5.0828e+06 -50.0526
internal_weight=0 684420 182795 1.12983 0.0299114 0.0285994 0.0183014 0.0133732 182794 0.970381 0.00667997 182793 2916.81 0.0497975 0.00778272 0.00383565 0.00394706 0.00270497 2916.76
internal_count=14315879 6647982 3743126 56529 47592 19653 6620 6563 3686597 27421 5529 3659176 1640717 809542 728732 484770 243962 71146 831175
is_linear=0
shrinkage=0.2


Tree=3
num_leaves=20
num_cat=0
split_feature=1 1 0 5 0 4 4 3 4 11 7 8 7 2 3 8 8 7 1
split_gain=2.03987e+07 6.99053e+06 2.11225e+07 4.37796e+08 4.6266e+10 6.4729e+11 2.448e+14 9.60387e+13 1.53547e+07 1.35297e+07 1.82926e+09 3.66022e+07 5.1068e+07 8.67464e+07 8.74888e+06 5.44163e+06 1.84576e+08 3.02071e+08 6.64152e+08
threshold=258.05500000000001 353.62000000000006 3.5000000000000004 1.0000000180025095e-35 5.5000000000000009 12.500000000000002 11.500000000000002 2.5000000000000004 11.500000000000002 2.5000000000000004 4253.0000000000009 28.500000000000004 60068.500000000007 1.5000000000000002 8.5000000000000018 448.50000000000006 523.50000000000011 276449.00000000006 309.30500000000006
decision_type=2 2 2 2 2 2 2 2 2 2 2 2 2 2 2 2 2 2 2
left_child=-1 2 -2 -4 5 6 7 -5 9 -6 -11 12 13 -12 -14 -13 17 18 -17
right_child=1 -3 3 4 8 -7 -8 -9 -10 10 11 15 14 -15 -16 16 -18 -19 -20
leaf_value=-0.52123426597980971 0.25496347084663029 0.66252933759680832 0.92293908103987476 25982473.019580882 34.596504114601828 10.385627109605197 -3.1312139245798889 99293401.280437931 0.47395679595627443 216866.28133459319 0.20000240514278583 144.05479228496776 -0.10498434664388029 66728.22502780307 16682.206258754624 166820.26256595948 261.79025479412087 3798.2516046284918 20852.707822852029
leaf_weight=1533650.2553114302 52268.125655132986 278125.3292297647 30370.858583363384 0.0016280975368939679 477.95310925785429 14.245153471851873 1.0236632387911753 0.0012741632235702127 1395.1285891862342 0.0015585655346538321 0.0015585655346538338 18.204065377824012 0.0065092332661151886 0.0015585655346512794 0.0015585655346512794 0.0015585655346507235 1.9848515558987854 0.020536323077976704 0.0062342621386051178
leaf_count=13881950 47170 273568 70648 2349 2878 4154 361 8296 18686 509 11 3472 74 63 99 316 924 144 207
internal_value=0 1.14665 2.73922 6.76182 99.6747 11063.8 164446 5.81678e+07 11.2368 41.3774 201.582 184.888 11622.8 33364.2 3222.64 178.56 490.576 16520.2 50046.2
internal_weight=0 362673 84547.6 32279.4 1908.58 15.2717 1.02657 0.00290226 1893.31 498.183 20.23 20.2284 0.0111849 0.00311713 0.0080678 20.2172 2.01318 0.0283292 0.00779283
internal_count=14315879 433929 160361 113191 42543 15160 11006 10645 27383 8697 5819 5310 247 74 173 5063 1591 667 523
is_linear=0
shrinkage=0.2


Tree=4
num_leaves=20
num_cat=0
split_feature=0 9 4 3 0 4 9 2 0 5 0 3 3 11 4 3 3 0 0
split_gain=4.38606e+06 2.87047e+06 1.24992e+07 2.58374e+08 6.3501e+11 1.52434e+11 1.97104e+10 1.82851e+10 1.01499e+08 3.2329e+09 4.70641e+12 2.62825e+11 4.63019e+11 1.38406e+11 1.13694e+11 9.62953e+10 3.31054e+10 1.57586e+11 4.56751e+10
threshold=10.500000000000002 49.500000000000007 11.500000000000002 1.0000000180025095e-35 3.5000000000000004 3.5000000000000004 58.500000000000007 3.5000000000000004 1.5000000000000002 1.0000000180025095e-35 3.5000000000000004 3.5000000000000004 5.5000000000000009 3.5000000000000004 3.5000000000000004 8.5000000000000018 6.5000000000000009 7.5000000000000009 7.5000000000000009
decision_type=2 2 2 2 2 2 2 2 2 2 2 2 2 2 2 2 2 2 2
left_child=1 -1 3 4 -3 7 -7 -6 -5 10 -10 -12 13 -13 -15 16 18 -18 -14
right_child=-2 2 -4 8 5 6 -8 -9 9 -11 11 12 15 14 -16 -17 17 -19 -20
leaf_value=-0.22178260175831405 0.85889491513431315 -233.13593411276253 -0.094246529438642312 -0.22872716063768023 -543031.10817276465 -2780266.1124587762 -3943384.0615721159 -1702113.1191161317 -318.82153162404421 -5.1871349835793517 0.19999935104225788 -2073935.403176354 -2712126.8733880376 -2732890.0921290056 -4274896.8709757309 -330751.61382959026 -25261.717990647143 -1775433.8362505217 -1777275.2292442003
leaf_weight=1395022.0595404385 131457.54475486721 31.359068635638579 207982.77601349846 71393.810446447053 0.0010456118853533472 0.0010010551919279465 0.0013947917722569869 0.0011357645600051924 196.89387032228785 9213.2787673245766 0.0027799906075632866 0.0034402226136629466 0.0029668963634534862 0.0034098697278253098 0.0043557539385750133 0.0020353629793135033 0.0022484436697052237 0.024277668976193212 0.0070772372929379657
leaf_count=7556676 2981574 37019 1309804 685351 16929 29448 55604 25837 315942 800664 966 35797 40566 47118 93180 3938 1058 215517 62891
internal_value=0 -0.340599 -0.914497 -3.02493 -576.952 -2.3561e+06 -3.4574e+06 -1.14652e+06 -2.80217 -22.3264 -824.113 -1.89255e+06 -1.99818e+06 -3.12997e+06 -3.5978e+06 -1.66966e+06 -1.74418e+06 -1.62708e+06 -2.05342e+06
internal_weight=0 1.68384e+06 288818 80835.4 31.3636 0.00457722 0.00239585 0.00218138 80804 9410.23 196.946 0.0525914 0.0498115 0.0112058 0.00776562 0.0386056 0.0365702 0.0265261 0.0100441
internal_count=14315879 11334305 3777629 2467825 164837 127818 85052 42766 2302988 1617637 816973 501031 500065 176095 140298 323970 320032 216575 103457
is_linear=0
shrinkage=0.2


Tree=5
num_leaves=20
num_cat=0
split_feature=1 1 4 0 6 8 1 1 1 1 8 8 2 1 8 1 12 5 11
split_gain=7.01037e+06 2.47372e+06 4.46795e+06 7.87026e+06 5.1059e+08 2.5532e+10 2.17939e+10 6.70774e+10 3.68642e+09 3.65732e+09 4.55094e+08 1.40812e+10 2.36395e+10 3.87817e+09 5.16838e+08 1.23068e+09 1.57989e+09 2.97594e+08 2.11358e+09
threshold=240.40500000000003 23.785000000000004 3.5000000000000004 3.5000000000000004 6166.5000000000009 299.50000000000006 8.6250000000000018 19.275000000000002 5.5650000000000004 8.4750000000000032 297.50000000000006 74.500000000000014 4.5000000000000009 13.115 60.500000000000007 7.5950000000000006 114.94093777403575 1.0000000180025095e-35 2.5000000000000004
decision_type=2 2 2 2 2 2 2 2 2 2 2 2 2 2 2 2 2 2 2
left_child=1 2 3 -1 17 10 8 -8 -7 -10 11 14 -13 -14 15 -6 -17 -5 -19
right_child=-2 -3 -4 4 5 6 7 -9 9 -11 -12 12 13 -15 -16 16 -18 18 -20
leaf_value=0.5370860421781648 0.75010394269461544 -0.4518014522328927 -0.16187148859396716 1.9201322947283395 3660.865497288135 -0.20047570287049582 1265952.8937168515 32949.393283323443 382342.88720134925 41334.208506771814 16.931021232820946 764685.95119223907 282939.65349590476 -0.20047570287048641 429.47051847751703 224400.38261769936 -0.19965747578308812 161.4558476821343 4987.98452298746
leaf_weight=70454.832436154014 351995.7539544364 883525.59209684085 434444.23972228629 14737.744577966123 0.01420351350770932 0.0094690090045331798 0.002813690487528219 0.0047345045022666454 0.0025160649965982893 0.0025160649965982884 2.8366583453389467 0.0025160649965982893 0.0026648777420632541 0.0071017567533999681 0.54460007480020067 0.0026648777420632533 0.0023720987760498247 175.14831261899963 3.7059684901032588
leaf_count=234352 489497 8701219 4558938 175528 269 811 591 180 490 36 61 654 309 100 435 201 17 55961 96230
internal_value=0 -0.248126 0.0980582 1.42075 5.59358 2443.76 216968 492568 73511.3 211839 1057.76 6182.5 218030 77201.4 1567.62 33782.7 118722 5.03214 261.464
internal_weight=0 1.40334e+06 519819 85374.9 14920 3.43483 0.0220493 0.00754819 0.0145011 0.00503213 3.41278 0.576123 0.0122827 0.00976663 0.563841 0.0192405 0.00503698 14916.6 178.854
internal_count=14315879 13826382 5125163 566225 331873 4154 2108 771 1337 526 2046 1985 1063 409 922 487 218 327719 152191
is_linear=0
shrinkage=0.2


Tree=6
num_leaves=20
num_cat=0
split_feature=1 9 1 0 0 0 8 7 7 12 8 12 7 3 1 7 7 12 1
split_gain=5.41759e+06 2.27514e+06 1.12244e+07 1.91284e+07 4.17199e+07 1.88141e+09 9.62391e+08 5.70038e+09 6.86385e+08 1.98462e+09 6.73633e+08 1.89147e+09 6.03072e+08 4.90741e+09 3.70619e+08 7.18214e+08 4.10701e+09 5.76318e+09 5.42425e+08
threshold=240.40500000000003 48.500000000000007 353.62000000000006 1.5000000000000002 4.5000000000000009 3.5000000000000004 599.50000000000011 180295.00000000003 5001.0000000000009 63.620055932717065 14.500000000000002 80.489756925878098 11649.000000000002 5.5000000000000009 258.05500000000001 35310.000000000007 15090.500000000002 61.181951799525045 282.90500000000003
decision_type=2 2 2 2 2 2 2 2 2 2 2 2 2 2 2 2 2 2 2
left_child=-1 -2 3 -3 5 -5 8 -8 9 -7 -11 -12 -10 14 -14 16 -16 18 -18
right_child=1 2 -4 4 -6 6 7 -9 12 10 11 -13 13 -15 15 -17 17 -19 -20
leaf_value=-0.22163940436359458 0.45636539623135253 0.12931817640437868 0.53491661667591106 11.634162453680773 -0.034836252835481918 69906.266148695169 113477.222020242 4960.7072191444995 274.91466033371876 -4.3789333594493085 6068.2093910471658 73293.627045751418 55.084422288939777 9863.2397989865876 1197.5824898810183 1327.5458618918678 6054.5997142921306 140339.7922829352 45497.386440094648
leaf_weight=1284864.1039482635 238116.16044546568 5810.2120987777798 46704.186261549949 2085.5847253045067 2526.9236761637244 0.020916641026845817 0.020924060650865384 0.25953058159356968 16.070831987765825 0.2177054786673126 0.083618915566213065 0.020932301204492548 11.314855769745082 2.7174392891753198 0.4389590797409928 9.6570475846988355 0.041820856635013129 0.020959160871017915 0.020924372817749476
leaf_count=13826382 322381 11581 97993 11179 32016 415 570 293 1220 13 226 517 1236 2934 341 5251 111 946 274
internal_value=0 0.728382 1.86139 7.78207 17.3372 37.9806 1381.23 13056.9 1300.63 10207.3 6332.43 19527.5 1224.76 1855.22 842.806 1718.37 8939.42 49538.8 19208
internal_weight=0 295284 57167.8 10463.6 4653.41 2126.49 40.9065 0.280455 40.626 0.343173 0.322257 0.104551 40.2828 24.212 21.4946 10.1797 0.522663 0.0837044 0.0627452
internal_count=14315879 489497 167116 69123 57542 25526 14347 863 13484 1171 756 743 12313 11093 8159 6923 1672 1331 385
is_linear=0
shrinkage=0.2


Tree=7
num_leaves=20
num_cat=0
split_feature=1 1 9 4 5 3 7 2 1 2 1 9 6 12 12 1 1 8 12
split_gain=4.70611e+06 2.44551e+06 1.76562e+07 1.77378e+08 1.82388e+08 1.80703e+08 8.59957e+07 6.59023e+07 3.78403e+07 3.12679e+07 2.86799e+07 6.35255e+07 1.0048e+08 3.19598e+07 5.08718e+07 2.2115e+07 1.96707e+07 1.88248e+07 7.72577e+07
threshold=258.05500000000001 353.62000000000006 49.500000000000007 3.5000000000000004 1.0000000180025095e-35 2.5000000000000004 2635.0000000000005 3.5000000000000004 282.90500000000003 4.5000000000000009 309.30500000000006 86.500000000000014 66.500000000000014 111.51872628372548 112.89029322584035 282.90500000000003 309.30500000000006 286.50000000000006 67.674542583687582
decision_type=2 2 2 2 2 2 2 2 2 2 2 2 2 2 2 2 2 2 2
left_child=-1 2 -2 4 5 -4 9 8 -8 -7 11 13 -13 17 -15 -9 -17 18 -10
right_child=1 -3 3 -5 -6 6 7 15 10 -11 -12 12 -14 14 -16 16 -18 -19 -20
leaf_value=-0.18706940945158901 0.55584266524137516 0.45660970282908642 78.619086924432565 1.7063069589077611 4.413564073110968 4801.8837445398749 322.1839486860236 130.89988307472498 2743.8017702666239 1485.5223019272687 511.49063415029917 228.36824615505594 6173.9383940551361 342.7061336146707 4573.2079696204992 495.94247763271869 250.9137450907555 605.4400026708156 715.80871374605647
leaf_weight=1210883.2197973698 43129.982917492285 183194.77397902514 147.58012741803975 6110.020683804175 279.93644656187519 0.22739619016647239 17.736902832984953 27.742335200309725 0.90958476066589788 0.22748233797756257 19.101279973983765 0.22739619016647239 0.22739619016647339 0.22739619016647417 0.22739619016647339 22.057430446147919 32.290259003639221 10.687620937824247 4.3205276131629944
leaf_count=13881950 109495 273568 2234 32844 8961 213 814 992 194 107 1108 7 112 9 95 1202 1208 532 234
internal_value=0 0.794451 2.03714 11.6102 118.955 231.941 398.061 388.863 561.208 3143.39 679.207 869.587 3201.15 804.822 2457.96 276.194 350.361 757.589 1068.5
internal_weight=0 232999 49803.7 6673.75 563.727 283.791 136.21 135.756 53.6655 0.454879 35.9286 16.8273 0.454792 16.3725 0.454792 82.09 54.3477 15.9177 5.23011
internal_count=14315879 433929 160361 50866 18022 9061 6827 6507 3105 320 2291 1183 119 1064 104 3402 2410 960 428
is_linear=0
shrinkage=0.2


Tree=8
num_leaves=20
num_cat=0
split_feature=4 9 0 9 0 7 8 12 4 12 12 8 12 8 8 8 12 12 12
split_gain=3.86872e+06 6.30207e+06 1.64933e+09 4.0013e+09 9.7935e+09 4.73364e+09 6.8342e+09 4.02491e+09 5.53299e+09 4.68705e+09 8.48132e+09 2.15692e+09 4.46625e+09 2.11397e+09 1.7442e+09 1.32149e+10 1.40751e+10 3.54344e+09 7.07903e+09
threshold=3.5000000000000004 49.500000000000007 3.5000000000000004 52.500000000000007 8.5000000000000018 1252342.5000000002 588.50000000000011 83.866609523555425 2.5000000000000004 75.808893482445754 34.922587425280604 26.500000000000004 88.204593439488477 616.50000000000011 115.50000000000001 156.50000000000003 80.489756925878098 87.595162431644056 128.6999637637108
decision_type=2 2 2 2 2 2 2 2 2 2 2 2 2 2 2 2 2 2 2
left_child=1 -1 -3 -4 5 11 7 9 -9 10 -7 12 -5 14 -13 16 -16 -18 -19
right_child=-2 2 3 4 -6 6 -8 8 -10 -11 -12 13 -14 -15 15 -17 17 18 -20
leaf_value=0.29546882911634548 -0.21712010812474195 0.66013356233459919 96.497090356543879 27982.016984422371 -12.578370596742971 52776.596515287965 8092.6525601757503 348335.31517145684 68702.702075989117 13756.282949157912 352546.66560696362 3168.9619102519391 215135.34063814805 53646.693611991213 421520.38811169076 8560.6108323800745 18294.6563143536 320855.5918377224 4558.7878034681689
leaf_weight=288295.03406642668 995663.15723027464 30154.557264079023 74.518223344338736 0.050932345442274207 15.201921179890633 0.011319368110890404 0.073571081667978433 0.0056623568625582266 0.005659149494022131 0.022636597976088524 0.0056644951082489561 2.734261522319227 0.0056680546294955994 0.039618322949537155 0.0056623568625581147 5.8398274719433241 0.016977448482066393 0.0056623568625582266 0.005659149494022131
leaf_count=1125721 12083375 451905 75758 5046 352439 1404 1734 4984 1520 1409 5051 29687 3138 6363 7489 152262 1278 5057 259
internal_value=0 0.58364 3.32975 820.193 3064.35 8362.38 47082.4 103392 208559 73340.7 152757 7808.49 46723.9 7553.79 7341.65 9284.04 133681 76087.4 162752
internal_weight=0 318548 30253.1 98.5489 24.0307 8.82878 0.124513 0.050942 0.0113215 0.0396205 0.0169839 8.70427 0.0566004 8.64767 8.60805 5.87379 0.0339613 0.028299 0.0113215
internal_count=14315879 2232504 1106783 654878 579120 226681 16102 14368 6504 7864 6455 210579 8184 202395 196032 166345 14083 6594 5316
is_linear=0
shrinkage=0.2


Tree=9
num_leaves=20
num_cat=0
split_feature=1 1 9 0 0 3 7 3 3 8 7 1 7 9 8 8 8 9 7
split_gain=3.73104e+06 2.64582e+06 1.9127e+07 8.92541e+07 1.89824e+09 1.40696e+09 6.77192e+10 3.79003e+08 3.43351e+08 3.85013e+08 2.87185e+08 2.36763e+08 3.12551e+08 2.40692e+08 2.04195e+09 1.70744e+09 3.74832e+09 2.36726e+08 7.93091e+07
threshold=258.05500000000001 353.62000000000006 49.500000000000007 1.5000000000000002 5.5000000000000009 5.5000000000000009 134104.00000000003 2.5000000000000004 1.0000000180025095e-35 71.500000000000014 137228.50000000003 282.90500000000003 1131831.0000000002 83.500000000000014 103.50000000000001 266.50000000000006 556.50000000000011 91.500000000000014 5400.5000000000009
decision_type=2 2 2 2 2 2 2 2 2 2 2 2 2 2 2 2 2 2 2
left_child=-1 2 -2 -4 5 7 -7 8 11 -10 -8 -5 17 14 -14 -16 -17 -13 -9
right_child=1 -3 3 4 -6 6 10 18 9 -11 -12 12 13 -15 15 16 -18 -19 -20
leaf_value=-0.15547212940647773 0.67166133855936661 0.4663425592972904 -0.26798253148020851 628.21341435889394 -0.47262392704436734 132741.60352216373 53.866183268417096 49.194637886786197 1503.0640548341903 15407.01290920849 2349.158988893982 2453.1388902044469 7443.3115323319207 3589.524277809945 49023.670309615569 508462.27319531934 -730.71316250345069 18752.446250601664 707.3496434201445
leaf_weight=1056979.8714556573 29040.784739922019 146482.68916214211 3101.4027535496307 3.7432688450227918 805.34239114324635 0.1594122065734912 4.3608728563718691 11.402829090776789 0.15929587158424841 0.1593580747240475 4.3609239030365421 3.6327112378785396 0.034770437167025992 0.035995700629428029 0.0036757903872057787 0.0012252634624019265 0.0010951209114864469 0.035995700629427918 20.472221870586658
leaf_count=13881950 109495 273568 8238 985 20446 2920 27 1293 383 2947 1366 1858 33 19 36 55 17 72 10171
internal_value=0 0.830795 2.44875 15.4965 72.7534 1287.08 3562.58 777.804 2026.7 8456.4 1201.52 1753.1 2877.33 15507.8 26031.3 133819 268145 2613.06 471.904
internal_weight=0 179479 32996.1 3955.31 853.906 48.5637 8.88121 39.6824 7.80739 0.318654 8.7218 7.48874 3.74547 0.0767623 0.0407666 0.00599617 0.00232038 3.66871 31.8751
internal_count=14315879 433929 160361 50866 42628 22182 4313 17869 6405 3330 1393 3075 2090 160 141 108 72 1930 11464
is_linear=0
shrinkage=0.2


Tree=10
num_leaves=20
num_cat=0
split_feature=0 1 1 7 8 1 0 0 9 1 4 9 1 4 3 8 1 7 7
split_gain=4.95398e+06 7.77128e+07 9.02621e+12 4.68464e+13 2.19501e+11 3.35337e+06 6.90423e+06 2.1767e+08 2.08561e+09 6.4021e+10 1.32824e+11 5.35549e+08 4.05763e+09 9.72885e+09 4.67693e+09 2.04514e+10 3.89234e+09 6.83115e+09 1.46029e+10
threshold=10.500000000000002 353.62000000000006 309.30500000000006 2436.0000000000005 593.50000000000011 258.05500000000001 3.5000000000000004 4.5000000000000009 48.500000000000007 353.62000000000006 8.5000000000000018 26.500000000000004 309.30500000000006 3.5000000000000004 4.5000000000000009 468.50000000000006 282.90500000000003 83364.500000000015 2793592.0000000005
decision_type=2 2 2 2 2 2 2 2 2 2 2 2 2 2 2 2 2 2 2
left_child=5 2 3 4 -2 -1 -7 8 11 10 -10 12 13 14 -8 16 -16 -18 -19
right_child=1 -3 -4 -5 -6 6 7 -9 9 -11 -12 -13 -14 -15 15 -17 17 18 -20
leaf_value=-0.19522477725232376 3170665.5465402398 0.15089620478634319 -1.0628681944298559 36981632.204849258 41898.948148470394 -0.02056901839017421 28043.112156769723 0.62665792291320677 199670.68150510121 72.84933287946312 5174.0211077042231 15.807581039727177 427.46601721249772 1826.9251877572399 29703.29133998448 598098.35893533821 76057.317733389122 624256.7596511757 -66.529177100535065
leaf_weight=992938.88136566465 0.0010001686064874142 21450.663485130099 1190.1306109150876 0.0016331891454510758 0.0086876090193968285 81477.859042987693 0.18282695041906782 30801.844823969375 0.19943165779281713 20.614403275736237 0.47486376762390137 830.67045544679274 46.082416679559799 0.79245680094109017 0.047954605555314167 0.0029971668948136623 0.026974464421521738 0.002997165144497326 0.0029971625190228224
leaf_count=11021279 114330 84877 13151 2758150 11066 125281 576 136177 10232 13424 2306 20512 3079 715 161 203 186 172 2
internal_value=0 2.9109 52.6561 5.64733e+06 364914 -0.0776562 0.953795 3.45811 100.459 2056.46 62698.9 53.0225 708.777 12947.7 45985.3 85073.5 66072.6 118973 312095
internal_weight=0 22640.8 1190.14 0.011321 0.00968778 1.10612e+06 113179 31700.9 899.101 21.2887 0.674295 877.812 47.1416 1.0592 0.266748 0.0839206 0.0809234 0.0329688 0.00599433
internal_count=14315879 2981574 2896697 2883546 125396 11334305 313026 187745 51568 25962 12538 25606 5094 2015 1300 724 521 360 174
is_linear=0
shrinkage=0.2


Tree=11
num_leaves=20
num_cat=0
split_feature=0 1 5 3 7 9 3 9 6 12 7 12 12 12 3 9 8 3 7
split_gain=1.8918e+08 1.23279e+09 8.87602e+09 8.77191e+09 1.75482e+10 4.37671e+09 2.49485e+09 1.57625e+09 9.34602e+08 9.11314e+08 7.52464e+08 7.1866e+08 1.09401e+09 5.9931e+08 5.19858e+08 4.94869e+08 3.44987e+09 4.07027e+08 3.69939e+08
threshold=10.500000000000002 353.62000000000006 1.0000000180025095e-35 7.5000000000000009 2894.5000000000005 24.500000000000004 8.5000000000000018 47.500000000000007 582.50000000000011 92.306851187552851 4691.5000000000009 72.874896615910643 27.112558691119219 119.26899165868107 2.5000000000000004 19.500000000000004 283.50000000000006 8.5000000000000018 19374.500000000004
decision_type=2 2 2 2 2 2 2 2 2 2 2 2 2 2 2 2 2 2 2
left_child=-1 2 5 14 -5 6 -2 -6 -8 11 -10 12 -9 15 -4 16 -12 -7 -17
right_child=1 -3 3 4 7 17 8 9 10 -11 13 -13 -14 -15 -16 18 -18 -19 -20
leaf_value=-0.061010138133473925 -2726.7124210324578 0.14043093015208838 -1478.6090373787106 -130452.02287888821 -5864.1012251151687 -32.786455610312544 -46139.680208024707 -8296.3881433094775 -41994.838380102243 -46290.912790712246 -81433.190330311947 -8458.0415830770708 -52159.341947836219 -38116.784430216583 -10.441796014279793 -18975.702491178214 -9576.0776334932707 -218.26047358667029 -7439.0836410561351
leaf_weight=1022918.9741423819 5.0206114952828775 18736.799210879988 48.307599907993733 0.045569170171971929 15.10202922479038 2322.2297399918771 0.030065093390305608 0.04548852336853363 0.030065451924201514 0.045490363413450141 0.03006628850329196 0.18195249679124065 0.045491188286207261 0.030065332412902879 12.054267801985672 0.12025774431265279 0.24051082768465903 594.42465726891578 1.4731244424672238
leaf_count=11334305 68658 84877 384291 54434 443056 439752 6939 22626 6315 127361 12246 93923 141685 5731 1841 11415 11518 1010094 54812
internal_value=0 -18.9166 -137.961 -2274.27 -6523.94 -82.5532 -5086.59 -6157.72 -11149.6 -20083.2 -10602.8 -15715 -30228.5 -10104.5 -1185.42 -9652.69 -17560.8 -70.5867 -8309.79
internal_weight=0 21736.3 2999.46 75.8279 15.466 2923.63 6.97477 15.4205 1.95416 0.318423 1.92409 0.272932 0.0909797 1.89402 60.3619 1.86396 0.270577 2916.65 1.59338
internal_count=14315879 2981574 2896697 1269217 883085 1627480 177634 828651 108976 385595 102037 258234 164311 95722 386132 89991 23764 1449846 66227
is_linear=0
shrinkage=0.2


Tree=12
num_leaves=20
num_cat=0
split_feature=0 1 9 7 4 9 4 9 6 7 6 9 9 12 7 8 7 4 7
split_gain=2.31597e+08 6.83779e+11 1.06832e+14 1.52078e+14 1.55983e+13 3.20005e+14 2.33799e+12 6.06472e+13 2.00014e+11 2.02265e+12 1.62846e+11 7.67409e+12 1.92124e+09 6.48864e+08 3.79001e+08 1.32723e+08 3.14705e+08 9.91474e+07 1.07581e+08
threshold=10.500000000000002 353.62000000000006 27.500000000000004 1547.0000000000002 18.500000000000004 51.500000000000007 21.500000000000004 55.500000000000007 5186.5000000000009 2120.0000000000005 1871.5000000000002 50.500000000000007 49.500000000000007 103.65346685018058 1779.0000000000002 260.50000000000006 127713.50000000001 22.500000000000004 2120.0000000000005
decision_type=2 2 2 2 2 2 2 2 2 2 2 2 2 2 2 2 2 2 2
left_child=-1 2 3 -2 5 -4 7 -6 10 -10 11 -8 13 14 -12 16 -7 -13 -19
right_child=1 -3 4 -5 6 15 8 -9 9 -11 12 17 -14 -15 -16 -17 -18 18 -20
leaf_value=-0.049965784270775748 -1049677.9797179953 0.12959443854012168 -78760792.95316039 -94447224.440853536 -34119299.489683211 108035.96933659162 -11393858.003783984 9109.2845310084958 10027.940175239761 -6412916.3722005989 -147.82654648871153 9322.9945149273917 12671.166099653514 -19916.278256644218 -3987.0766912789313 14324.283910547358 20006.497964601334 51073.74736820504 18261.794068480445
leaf_weight=1001803.5431361382 0.0017433921490579362 16490.867618601776 0.0021659431556856337 0.001162261790988223 0.0021659413158719989 0.0021659412886947393 0.0024156698729881345 0.05423014797270298 0.020742114400491226 0.0021659413014576438 3.6062813028700429 0.064142555929720402 0.41243149945512403 0.075547002257122631 1.4388715028813672 0.034486947814002633 0.006497823866084218 0.0045816111378371707 0.031322092283517122
leaf_count=11334305 9935 84877 955244 555922 371607 201374 138829 110 40 70139 2985 225 1794 7857 29186 439272 111969 21 188
internal_value=0 -23.9416 -68902.4 -3.84087e+07 -49562.4 -3.7455e+06 -20255.3 -1.30162e+06 -7484.39 -597257 -5087.03 -254922 -460.611 -1518.27 -1242.78 19883.8 42013.9 14033.5 22448.9
internal_weight=0 16496.6 5.76312 0.00290565 5.76021 0.0453167 5.7149 0.0563961 5.6585 0.0229081 5.63559 0.102462 5.53313 5.1207 5.04515 0.0431507 0.00866377 0.100046 0.0359037
internal_count=14315879 2981574 2896697 565857 2330840 1707859 622981 371717 251264 70179 181085 139263 41822 40028 32171 752615 313343 434 209
is_linear=0
shrinkage=0.2


Tree=13
num_leaves=20
num_cat=0
split_feature=0 4 4 9 3 5 9 6 9 3 12 6 3 6 0 8 12 0 9
split_gain=7.51854e+06 6.92338e+07 2.85411e+08 1.25817e+08 1.19053e+08 1.04654e+08 1.37779e+08 1.08068e+08 2.96935e+08 9.98277e+07 9.22359e+07 1.09664e+08 8.27118e+07 7.96678e+07 5.88402e+07 3.92314e+07 6.01971e+07 3.74451e+07 1.09197e+11
threshold=10.500000000000002 18.500000000000004 21.500000000000004 27.500000000000004 9.5000000000000018 1.0000000180025095e-35 42.500000000000007 5663.5000000000009 44.500000000000007 2.5000000000000004 29.740908140218203 937.50000000000011 1.0000000180025095e-35 878.50000000000011 11.500000000000002 586.50000000000011 109.96173364552085 11.500000000000002 24.500000000000004
decision_type=2 2 2 2 2 2 2 2 2 2 2 2 2 2 2 2 2 2 2
left_child=-1 -2 3 -3 9 -6 10 -8 -9 12 11 -7 -5 -12 -11 -15 -17 18 -4
right_child=1 2 17 4 5 6 7 8 -10 14 13 -13 -14 15 -16 16 -18 -19 -20
leaf_value=-0.040751022865220483 2.629992080775267 -0.57198269063615503 610405.7840643212 8.2312909146028428 -426.69696066037488 -4051.5976302929394 -2880.8895747540555 -3505.6243290688285 -39154.564692596869 -270.06190396981327 -3074.8482303294886 -25720.262798657506 -568.62688887114462 -608.86902208769231 1.5357755855604278 -18454.282497664397 -1428.9205673382248 -7.3349996247541132 -295.65342621857269
leaf_weight=984762.12683427462 11464.143545233745 84.90875057235354 0.011713850900973877 12.95347134107473 41.905703948071441 0.037366107171932117 1.0089229599324832 0.03736636299710492 0.012463361022637252 55.7765006661337 0.58542122559116805 0.012457006338426169 42.770992694000199 6.8254703630192957 74.556308736919704 0.01246309497748388 0.024910379959376172 2794.9647897315203 57.247450957315635
leaf_count=11334305 2087111 142670 29465 127 94265 1245 22126 1064 3183 78169 14938 2549 127023 33761 615 1839 285 198727 142412
internal_value=0 -4.60704 -30.7493 -209.413 -284.385 -556.847 -1194.23 -3329.94 -12422.1 -210.487 -892.665 -9469.3 -434.533 -835.294 -114.696 -644.253 -7106.44 -10.615 -170.719
internal_weight=0 14637.8 3173.65 321.429 236.52 50.4625 8.55684 1.05875 0.0498297 186.057 7.49809 0.0498231 55.7245 7.44827 130.333 6.86284 0.0373735 2852.22 57.2592
internal_count=14315879 2981574 894463 523859 381189 175255 80990 26373 4247 205934 54617 3794 127150 50823 78784 35885 2124 370604 171877
is_linear=0
shrinkage=0.2


Tree=14
num_leaves=20
num_cat=0
split_feature=0 0 4 9 1 8 8 3 8 8 1 8 8 8 3 6 2 8 6
split_gain=1.35069e+08 2.45592e+09 2.65787e+11 7.14931e+11 2.47079e+12 4.03292e+12 1.28095e+12 2.65095e+11 3.8949e+11 6.69699e+10 5.99048e+10 3.28264e+10 2.61834e+10 8.80293e+09 7.75647e+09 2.94004e+10 7.12175e+09 2.13577e+10 3.65723e+09
threshold=10.500000000000002 11.500000000000002 20.500000000000004 26.500000000000004 716.05500000000018 336.50000000000006 161.50000000000003 8.5000000000000018 212.50000000000003 164.50000000000003 422.57000000000005 164.50000000000003 499.50000000000006 109.50000000000001 8.5000000000000018 601.50000000000011 5.5000000000000009 333.50000000000006 6092.5000000000009
decision_type=2 2 2 2 2 2 2 2 2 2 2 2 2 2 2 2 2 2 2
left_child=-1 2 -2 18 10 6 -6 8 9 -8 11 13 -13 -5 15 -12 17 -9 -4
right_child=1 -3 3 4 5 -7 7 16 -10 -11 14 12 -14 -15 -16 -17 -18 -19 -20
leaf_value=-0.033119188519946864 8.6839189016666403 -0.15059829701987706 2803.5568646304596 -117348.40631046239 1312664.5311614734 2288094.7338763308 16182.1070156551 189372.80550261162 879222.90886247065 349614.66671951528 7369.7038735361748 -290517.48118129681 -82029.843355668592 -18644.166489410138 4248.2329378971399 187754.20084385501 18338.154178128854 1075.1302005934929 42175.281348441116
leaf_weight=971040.54864496819 603.28663745926212 10826.332109846337 4.1927750952317835 0.048189745599322764 0.048189928692206119 0.0482251055984671 0.048189654946327265 0.048189654946327209 0.048201439849395677 0.048189654946327209 0.14456896483898174 0.048189836252319651 0.048189654946327209 0.14456905549197785 0.43370771039391087 0.048189654946327209 0.09637940054565064 0.048189654946327209 0.096545184995967648
leaf_count=11334305 1020037 1710541 37378 36557 2825 4805 35 609 1684 664 119 95735 27670 18077 1594 557 150 8 22529
internal_value=0 21.8308 412.647 43632.9 170604 563806 348118 210330 415044 182898 -15670.1 -90971.5 -186274 -43320.2 19084.4 52465.8 56781 95224 3689.75
internal_weight=0 11435.3 608.925 5.63868 1.34936 0.433754 0.385529 0.337339 0.144581 0.0963793 0.915605 0.289138 0.0963795 0.192759 0.626466 0.192759 0.192759 0.0963793 4.28932
internal_count=14315879 2981574 1271033 250996 191089 10780 5975 3150 2383 699 180309 178039 123405 54634 2270 676 767 617 59907
is_linear=0
shrinkage=0.2


Tree=15
num_leaves=20
num_cat=0
split_feature=1 1 3 1 8 6 4 7 6 7 8 1 4 11 4 11 3 8 12
split_gain=6.53608e+06 2.00375e+06 5.64839e+06 4.85895e+07 2.58562e+08 1.66835e+08 3.50157e+08 1.21787e+08 1.59e+12 9.60788e+06 8.83654e+07 6.37745e+06 3.27227e+06 1.83604e+06 1.43753e+07 1.04524e+07 7.29262e+09 2.80209e+11 5.51056e+10
threshold=258.05500000000001 23.785000000000004 9.5000000000000018 92.145000000000024 28.500000000000004 275.50000000000006 18.500000000000004 47719.500000000007 294.50000000000006 2635.0000000000005 235.50000000000003 25.085000000000004 3.5000000000000004 2.5000000000000004 3.5000000000000004 3.5000000000000004 3.5000000000000004 175.50000000000003 103.65346685018058
decision_type=2 2 2 2 2 2 2 2 2 2 2 2 2 2 2 2 2 2 2
left_child=1 12 -3 4 -4 6 -6 9 -9 -7 11 -11 -1 -2 15 -15 -17 -18 -19
right_child=13 2 3 -5 5 7 -8 8 -10 10 -12 -13 -14 14 -16 16 17 18 -20
leaf_value=1.2214483904797491 0.75182595378770078 -0.4380840028961786 -9387.586680204482 -2.1134389192326362 -0.23252463284144495 -4.236736843293099 -13210.948611761494 -2.6902945683724528 -7150151.4782017041 0.21627624072806353 -997.54223802534636 -161.64787906109754 -0.2318313633412688 9.4166978408355746 1.0965477403117785 6.5330917702937512 2742102.5419171802 10272.430852408128 866755.16179741907
leaf_weight=84798.96469938333 85503.123412483284 523598.63018260594 0.12031079058945593 1841.8068265279239 0.24062158167362113 83.133431161060798 0.12041739020060049 12.982079505920414 0.0012441414392804209 38.946238518334383 4.1665020517058045 12.982079506206984 230246.4405996213 4052.1589507893877 38840.374977330277 546.36519381857943 0.0015066541964178217 1.0670126543845977 0.0030133083928377538
leaf_count=566225 278821 7994535 29307 233893 20141 25279 10301 1151 257205 1503 119551 63921 4558938 4180 119676 14035 4926 9896 2395
internal_value=0 -0.239488 -0.47855 -11.1016 -119.518 -112.21 -4406.4 -102.024 -687.861 -47.394 -111.354 -40.2498 0.15934 1.28976 2.34857 12.921 38.8601 16522.1 12684.4
internal_weight=0 840639 525593 1994.5 152.693 152.573 0.361039 152.212 12.9833 139.228 56.0948 51.9283 315045 128943 43440 4599.6 547.437 1.07153 1.07003
internal_count=14315879 13881950 8756787 762252 528359 499052 30442 468610 258356 210254 184975 65424 5125163 433929 155108 35432 31252 17217 12291
is_linear=0
shrinkage=0.2


Tree=16
num_leaves=20
num_cat=0
split_feature=1 0 0 0 4 5 3 1 1 3 6 4 1 11 2 6 4 6 11
split_gain=6.16128e+06 9.10056e+06 3.74863e+07 4.23456e+08 2.88372e+08 9.58783e+07 3.66973e+07 6.30018e+08 2.20605e+09 5.30738e+11 3.27158e+09 8.57989e+10 7.1858e+10 4.76922e+08 4.06088e+09 2.50835e+10 2.94789e+08 3.2976e+10 3.97601e+08
threshold=258.05500000000001 6.5000000000000009 8.5000000000000018 7.5000000000000009 11.500000000000002 1.0000000180025095e-35 9.5000000000000018 23.785000000000004 88.365000000000023 10.500000000000002 2957.5000000000005 18.500000000000004 26.425000000000004 2.5000000000000004 5.5000000000000009 4609.5000000000009 18.500000000000004 2957.5000000000005 2.5000000000000004
decision_type=2 2 2 2 2 2 2 2 2 2 2 2 2 2 2 2 2 2 2
left_child=1 -1 3 -3 5 -5 -4 -8 9 10 11 -9 -13 14 15 -12 -10 -18 -19
right_child=-2 2 6 4 -6 -7 7 8 16 -11 13 12 -14 -15 -16 -17 17 18 -20
leaf_value=0.022122139301827139 1.4709038411342101 -4.305240885863137 -0.55218977915510192 -262.16095619184142 -779.21891890037671 -14.029065387023266 -18.653448969341049 -0.22520454419932887 58.340134775999289 -3327131.1700461819 -19908.172243298333 -91808.614675261575 -1659304.9527598759 20.226468152779717 -2183.2419415504887 -710190.49885883729 -265109.50450243114 -5433.8354349611909 21.016401072636942
leaf_weight=618787.28579758236 96265.382372506661 4895.9190863634976 72687.867876467499 178.63850565959683 35.794612012152356 95.63732787631352 1080.7526890429069 0.10347429011027642 10.562921005810438 0.0019251418978091231 0.021056891418991364 0.0023396548329424052 0.0023396546021103859 1.1553748605074361 0.27841889765113592 0.002339654602110385 0.018955955019025583 0.62278869993831776 3.7699740888055562
leaf_count=8787136 433929 372787 2564389 331642 140145 287146 636672 110188 192131 222164 17235 2641 40110 57732 16480 39457 36363 21432 6100
internal_value=0 -0.23594 -2.2575 -18.66 -245.317 -175.64 -1.10021 -37.4023 -1262.34 -8401.57 -4320.02 -37881.5 -875557 -1829.06 -8908.29 -88936.4 -515.142 -1888.22 -752.351
internal_weight=0 697778 78991.2 5205.99 310.07 274.276 73785.2 1097.29 16.5419 1.56727 1.56534 0.108154 0.00467931 1.45719 0.301815 0.0233965 14.9746 4.41172 4.39276
internal_count=14315879 13881950 5094814 1131720 758933 618788 3963094 1398705 762033 506007 283843 152939 42751 130904 73172 56692 256026 63895 27532
is_linear=0
shrinkage=0.2


Tree=17
num_leaves=20
num_cat=0
split_feature=4 0 0 11 6 9 6 9 6 2 3 6 3 2 0 6 3 0 3
split_gain=2.81366e+06 5.20244e+08 3.75577e+11 4.25139e+10 7.26925e+09 6.67229e+09 6.62201e+09 1.96677e+07 2.19147e+07 1.7147e+07 4.64033e+07 6.80509e+06 4.61779e+07 7.27542e+06 4.30832e+06 1.10983e+09 2.14028e+09 5.62021e+08 2.30334e+10
threshold=3.5000000000000004 10.500000000000002 11.500000000000002 1.5000000000000002 2660.5000000000005 36.500000000000007 859.50000000000011 47.500000000000007 5899.5000000000009 1.0000000180025095e-35 7.5000000000000009 5540.5000000000009 5.5000000000000009 3.5000000000000004 3.5000000000000004 6166.5000000000009 7.5000000000000009 7.5000000000000009 6.5000000000000009
decision_type=2 2 2 2 2 2 2 2 2 2 2 2 2 2 2 2 2 2 2
left_child=1 14 3 4 6 -6 -3 -4 9 10 -9 -11 13 -13 -1 -16 17 -17 -19
right_child=-2 2 7 -5 5 -7 -8 8 -10 11 -12 12 -14 -15 15 16 -18 18 -20
leaf_value=-0.013577565981707389 -0.16420325092178445 1111176.2912943035 424.35458714889342 2430326.1525645345 715369.17883992183 1274910.93757647 1673394.6657864498 10684.381916775066 6799.2248711087859 733.24854037562864 485.84467190159899 3885.3570868593119 9713.0926553582212 323.96312833218542 1.5094557264269997 883.69136261869266 14003.031665182656 173313.73793950223 804.94547266307541
leaf_weight=150098.9815406345 556639.71201330831 0.0017782960013991156 23.797458016750173 0.0012623821083588282 0.0019257195108366432 0.0015295188459276687 0.0015848026596358977 0.02676854468881984 0.026768544688820728 1.4187328685075042 0.053537089377641678 0.026768544688820728 0.026768544688820839 0.16061126813292503 66177.084232740162 15.162427924088993 0.54066064921692358 0.031803557459066822 1.1667288337838031
leaf_count=973242 12083375 291 4248 97879 1497 1382 1122 1692 2501 161644 15229 156 557 298 946799 18468 2754 343 2402
internal_value=0 0.68578 903.193 1.36419e+06 1.16679e+06 963060 1.37611e+06 471.814 1120.92 1032.19 3885.36 891.875 1942.78 832.734 0.579188 1.92332 1622.39 1213.26 5382.54
internal_weight=0 216319 25.5455 0.00808072 0.00681834 0.00345524 0.0033631 25.5374 1.73996 1.71319 0.0803056 1.63288 0.214148 0.18738 216293 66194 16.9016 16.361 1.19853
internal_count=14315879 2232504 288496 102171 4292 2879 1413 186325 182077 179576 16921 162655 1011 454 1944008 970766 23967 21213 2745
is_linear=0
shrinkage=0.2


Tree=18
num_leaves=20
num_cat=0
split_feature=1 4 11 1 1 9 9 8 3 9 6 6 6 8 9 8 12 7 12
split_gain=3.22309e+06 5.87485e+06 1.29561e+08 1.23478e+11 5.01305e+11 5.65819e+11 1.93457e+11 1.84181e+11 2.68548e+11 3.21172e+10 2.45238e+11 2.01388e+10 2.85329e+10 1.93516e+10 1.78441e+10 1.50244e+10 1.20755e+10 8.85915e+09 8.41e+09
threshold=229.49500000000003 3.5000000000000004 2.5000000000000004 258.05500000000001 353.62000000000006 61.500000000000007 24.500000000000004 195.50000000000003 2.5000000000000004 55.500000000000007 3686.5000000000005 6586.0000000000009 6419.5000000000009 489.50000000000006 24.500000000000004 77.500000000000014 72.874896615910643 2060824.5000000002 44.806020458839349
decision_type=2 2 2 2 2 2 2 2 2 2 2 2 2 2 2 2 2 2 2
left_child=-1 2 -2 -4 5 9 15 -7 -9 11 -11 12 14 16 17 -6 -14 -5 -17
right_child=1 -3 3 4 6 7 -8 8 -10 10 -12 -13 13 -15 -16 18 -18 -19 -20
leaf_value=-0.10774820358080256 1.6196576689246163 0.46213054032746542 4.9427397005560731 449900.3490357332 1381442.8208628439 938062.64283291704 347.09644614950889 1771448.2582218421 5608183.2938613836 3723786.9384311195 212849.85404349651 62703.295435828215 1704238.1785071434 454179.62127244577 29691.821963266302 1137660.0162110629 923129.10502511973 1001238.9133674017 625179.59498745378
leaf_weight=600192.70513220248 15228.17782256471 86446.26505735195 428.3440990605589 0.026005770447242754 0.0013551051427887493 0.0013103605297146706 0.36956279889446753 0.001386323458973493 0.0015407128930746694 0.0010250318473481448 0.0035583802246037521 0.0049758309032768002 0.0012204868253320447 0.0023470900487154722 0.0041560545159416975 0.0014397977116343561 0.0022532064467668533 0.0012204881649944535 0.011603069547975992
leaf_count=13771485 53807 450330 4825 1440 127 3149 17889 1646 5163 2688 1346 298 116 102 496 122 144 92 614
internal_value=0 1.10777 4.67251 113.095 106620 695757 28368.2 2.90877e+06 3.791e+06 495223 998034 440585 491126 897818 415693 747605 1.19757e+06 474616 681752
internal_weight=0 102103 15657 428.779 0.434961 0.0509997 0.383961 0.0042374 0.00292704 0.0467623 0.00458341 0.0421789 0.0372031 0.00582078 0.0313823 0.014398 0.00347369 0.0272263 0.0130429
internal_count=14315879 544394 94064 40257 35432 16680 18752 9958 6809 6722 4034 2688 2390 362 2028 863 260 1532 736
is_linear=0
shrinkage=0.2


Tree=19
num_leaves=20
num_cat=0
split_feature=1 0 1 3 3 9 3 11 1 1 1 8 9 1 1 1 7 1 8
split_gain=1.90145e+06 3.43452e+09 3.6256e+13 2.66507e+12 1.50279e+12 3.35389e+12 5.26016e+11 2.22225e+09 7.27866e+10 1.12743e+09 1.35748e+09 2.00327e+08 1.96398e+08 3.84993e+09 9.08575e+07 6.8708e+07 6.85352e+07 2.93206e+07 4.22572e+07
threshold=240.40500000000003 9.5000000000000018 26.425000000000004 2.5000000000000004 7.5000000000000009 55.500000000000007 9.5000000000000018 1.5000000000000002 8.4750000000000032 15.535000000000002 9.5150000000000023 118.50000000000001 49.500000000000007 9.5150000000000023 15.535000000000002 23.155000000000005 1288121.5000000002 16.735000000000003 628.50000000000011
decision_type=2 2 2 2 2 2 2 2 2 2 2 2 2 2 2 2 2 2 2
left_child=1 -1 3 -3 5 -5 -6 8 -8 10 11 -10 13 -9 -15 17 -17 18 -11
right_child=-2 2 -4 4 6 -7 7 12 9 15 -12 -13 -14 14 -16 16 -18 -19 -20
leaf_value=0.030607211644205115 0.88716868320937126 -8678645.7306742109 -32457914.316380925 13066398.978846103 -4091557.3012549542 10185.164365515539 -258916.33784445646 -60108.935441345559 -1892.0335509960241 -8779.5852040891386 -47571.491433188145 -18278.732018540359 6.8916902437897312 -9445.3297362404028 -294.97273750102454 -12036.818519110408 -969.37418261212247 -755.05508154605116 -89.161613258002035
leaf_weight=576750.11517732881 92911.253807079745 0.0014155203586047041 0.0013766873400758986 0.0011377580197579054 0.0012572718331388391 0.0025527826182951685 0.044761914759873789 0.044761914759876897 0.089523829519749021 0.044761914759875121 0.044761914759874344 0.044761914759874344 29.305400848388672 0.044761914759874233 1.4323812723159788 0.044761914759874233 0.044761914759874344 2.6857148855924606 0.044761914759874344
leaf_count=10975230 489497 382436 1507238 2985 297888 525 167787 127279 4511 6790 43642 16706 185538 24624 29839 16156 1185 35954 69
internal_value=0 -0.0877552 -2012.42 -695.24 -333.108 4.03529e+06 -772.227 -620.58 -5735.2 -2011.95 -17408.6 -7354.27 -108.149 -2323.34 -572.256 -1049.66 -6503.1 -873.743 -4434.37
internal_weight=0 576784 33.9236 33.9222 33.9208 0.00369054 33.9171 33.9159 3.08857 3.04381 0.179048 0.134286 30.8273 1.52191 1.47714 2.86476 0.0895238 2.77524 0.0895238
internal_count=14315879 13826382 2851152 1343914 961478 3510 957968 660080 292800 125013 64859 21217 367280 181742 54463 60154 17341 42813 6859
is_linear=0
shrinkage=0.2


Tree=20
num_leaves=20
num_cat=0
split_feature=4 0 4 1 8 8 3 1 4 11 8 12 3 12 1 3 4 2 12
split_gain=1.81793e+06 1.99053e+09 4.10777e+10 2.4849e+11 2.24077e+11 2.64942e+10 4.67028e+09 3.16932e+10 3.22461e+10 4.21664e+10 3.67805e+10 2.11208e+10 1.56666e+10 1.24968e+10 5.93247e+09 6.55432e+09 3.5722e+10 4.24414e+09 4.90292e+09
threshold=21.500000000000004 10.500000000000002 4.5000000000000009 524.15000000000009 438.50000000000006 440.50000000000006 9.5000000000000018 422.57000000000005 18.500000000000004 2.5000000000000004 497.50000000000006 108.46795239996082 10.500000000000002 83.866609523555425 422.57000000000005 2.5000000000000004 9.5000000000000018 5.5000000000000009 66.201535883668541
decision_type=2 2 2 2 2 2 2 2 2 2 2 2 2 2 2 2 2 2 2
left_child=1 -1 3 4 -3 -6 14 8 -8 10 11 12 13 -10 15 -4 -17 18 -14
right_child=-2 2 6 -5 5 -7 7 -9 9 -11 -12 -13 17 -15 -16 16 -18 -19 -20
leaf_value=-0.040579140947872329 0.87234920543983763 1194365.9079726648 11140.494996114889 218.56770787132078 5707.7320219904359 399527.44008822535 3889.5677367675912 46.26810742604728 -365160.95046630746 625.81593560533872 -1224406.9318001529 -966582.56078734086 -157139.20016030513 -952230.97583243775 1156.1238527364189 20321.649186416733 362774.15740192332 -81324.999874478439 -382968.0654050124
leaf_weight=553542.45121239743 117313.24641323311 0.013670854656403164 0.24065790219382016 0.23813046990207587 0.013666152022778988 0.013666152022778988 0.057438642535752593 1.0766696025310658 0.0086997206422920748 0.025894486452409993 0.0017399441283567621 0.0017399441288650222 0.010437865974381566 0.001740543726943101 6.4000759478064682 0.07804561510511214 0.014438191856270946 0.011307688138913363 0.0060887551517225793
leaf_count=10396548 1308361 245302 618730 5588 1285 107645 828848 17624 49834 47537 29763 23142 20068 25962 22650 133782 393378 11273 28559
internal_value=0 0.00562074 3113.38 78521.7 533276 202618 460.693 -11024.3 -106313 -199882 -324229 -285086 -254106 -463034 2510.56 28531 73783.9 -175740 -240339
internal_weight=0 553551 8.21411 0.279134 0.0410032 0.0273323 7.93497 1.20176 0.125088 0.0676489 0.0417545 0.0400145 0.0382746 0.0104403 6.73322 0.333142 0.0924838 0.0278343 0.0165266
internal_count=14315879 13007518 2610970 359820 354232 108930 2251150 1082610 1064986 236138 188601 158838 135696 75796 1168540 1145890 527160 59900 48627
is_linear=0
shrinkage=0.2


Tree=21
num_leaves=20
num_cat=0
split_feature=4 1 6 9 2 6 9 1 5 9 3 1 7 9 9 9 1 5 3
split_gain=1.38793e+06 4.46674e+07 5.26e+09 2.36471e+10 9.65914e+11 5.26041e+09 1.99283e+08 1.17605e+10 7.00095e+11 4.72969e+08 1.9161e+08 3.87681e+08 2.23577e+08 4.20705e+08 1.02619e+08 1.01602e+08 1.67687e+09 3.77011e+10 1.61579e+11
threshold=3.5000000000000004 258.05500000000001 6257.5000000000009 27.500000000000004 1.5000000000000002 6277.5000000000009 49.500000000000007 353.62000000000006 1.0000000180025095e-35 54.500000000000007 8.5000000000000018 422.57000000000005 1313.5000000000002 52.500000000000007 54.500000000000007 26.500000000000004 309.30500000000006 1.0000000180025095e-35 3.5000000000000004
decision_type=2 2 2 2 2 2 2 2 2 2 2 2 2 2 2 2 2 2 2
left_child=1 -1 6 4 5 -4 15 8 -8 -10 12 -12 13 -9 -14 16 17 18 -3
right_child=-2 2 3 -5 -6 -7 7 10 9 -11 11 -13 14 -15 -16 -17 -18 -19 -20
leaf_value=0.31112237209462545 -0.057160309049786431 72719.770138405671 279.6342062690652 113.43886888093719 4463765.3845375488 82775.110741933167 4860316.2915292671 -2364.4777383752898 -3966.7066853013694 -51615.591066872708 147402.18707997887 -850.5986003240522 -72.266619011748602 145930.99643989472 -4020.4354271207217 12.261706276690724 164.27717558230825 26.945950285963058 1603829.7183750963
leaf_weight=176156.83040644068 510550.77753467177 0.026988608406882109 0.092329449951551346 0.63935683416535172 0.0019917266326956442 0.046485099999699742 0.0012053125537144762 0.0021144527319839615 0.044064559876389353 0.010275925029418431 0.0010583274997487671 0.0021166549995541573 1.6810048432289435 0.0011991956507699797 0.31223917280658509 1314.7631631084989 62.928502305629451 0.65056750888473425 0.0030706505546742582
leaf_count=2159283 12083375 314 15 95 1047 402 9061 70 1810 7151 1160 3737 3188 378 13714 27299 2619 665 496
internal_value=0 0.592027 36.4182 16453.9 90651 27905.1 27.1396 1995.05 92770.5 -12977.2 -526.38 48567 -604.449 51303 -690.742 24.2053 271.072 10145 229128
internal_weight=0 177538 1381.21 0.780163 0.140806 0.138815 1380.43 2.05528 0.0555458 0.0543405 1.99973 0.00317498 1.99656 0.00331365 1.99324 1378.37 63.6091 0.680627 0.0300593
internal_count=14315879 2232504 73221 1559 1464 417 71662 40269 18022 8961 22247 4897 17350 448 16902 31393 4094 1475 810
is_linear=0
shrinkage=0.2


Tree=22
num_leaves=20
num_cat=0
split_feature=1 0 1 6 6 8 6 1 5 12 4 0 0 11 6 1 4 1 1
split_gain=1.48139e+06 1.74096e+08 2.77716e+09 1.0449e+09 5.61294e+08 5.78955e+07 1.02145e+08 2.49561e+06 2.44346e+06 4.48991e+06 1.47587e+06 2.33183e+07 8.80908e+08 1.82724e+09 9.03031e+09 9.06548e+09 1.20143e+10 1.47666e+10 3.07477e+09
threshold=23.785000000000004 9.5000000000000018 8.0350000000000019 4265.5000000000009 1542.5000000000002 145.50000000000003 4225.5000000000009 6.5750000000000011 1.0000000180025095e-35 15.611468662268017 3.5000000000000004 3.5000000000000004 8.5000000000000018 1.5000000000000002 6141.5000000000009 12.535000000000002 1.5000000000000002 8.0350000000000019 9.9450000000000021
decision_type=2 2 2 2 2 2 2 2 2 2 2 2 2 2 2 2 2 2 2
left_child=1 7 -3 4 -4 8 -7 -1 9 -6 11 -9 13 -13 -15 16 18 -18 -16
right_child=-2 2 3 -5 5 6 -8 10 -10 -11 -12 12 -14 14 15 -17 17 -19 -20
leaf_value=-0.45949746458813162 -0.13707464341966266 -6604.6310228025659 4089.2208057398857 5891.2287000110837 -3.4840171486172906 2075.3668998131502 0.72972748898637441 0.64200193422263974 -3.5469314666415048 431.47977306802068 0.49269593639639836 176.21241045479064 -0.14775460241632851 2082.6192616787503 68131.138366591127 13307.646905341186 98521.122459629594 740266.74525471649 289496.92220275686
leaf_weight=83429.609088918049 431528.20517492102 1.8985488414764429 1.8985488414764375 1.8985488414764411 1.8985488414764387 1.8985488414764395 1.8985488414764404 45831.064638331321 4.527984619140625 1.8985488414764404 115377.8312558327 77.872036928779579 3148.0150875133295 19.505299437413473 0.020078983856364085 0.040157967712730169 0.0028684262651950112 0.0028684262651950121 0.0028684262651950112
leaf_count=1869318 9190716 786802 185002 175281 330 110264 1420 109496 17131 16204 1748485 25648 28319 50033 309 576 128 324 93
internal_value=0 0.476395 625.623 1487.91 891.656 390.86 1038.05 0.43146 95.676 213.998 0.883453 1.80211 18.1847 610.418 2337.83 74646.2 160520 419394 95801.9
internal_weight=0 247902 17.8178 15.9193 14.0207 12.1222 3.7971 247884 8.32508 3.7971 164454 49076.5 3245.46 97.4462 19.5741 0.0688422 0.0286843 0.00573685 0.0229474
internal_count=14315879 5125163 1292434 505632 330351 145349 111684 3832729 33665 16534 1963411 214926 105430 77111 51463 1430 854 452 402
is_linear=0
shrinkage=0.2


Tree=23
num_leaves=20
num_cat=0
split_feature=1 1 0 8 8 4 0 0 9 1 6 9 6 6 6 1 9 6 6
split_gain=1.17902e+06 2.59422e+06 2.24618e+08 8.68187e+09 1.27041e+07 2.42144e+06 1.93432e+07 1.10522e+10 9.12069e+11 1.81124e+12 2.66874e+12 3.71518e+09 1.33726e+11 5.88629e+09 1.95592e+10 2.54757e+09 2.94348e+09 7.45371e+09 2.52263e+09
threshold=6.285000000000001 22.485000000000003 9.5000000000000018 145.50000000000003 143.50000000000003 3.5000000000000004 3.5000000000000004 8.5000000000000018 48.500000000000007 6.4350000000000014 5742.5000000000009 27.500000000000004 6141.5000000000009 1542.5000000000002 3686.5000000000005 6.4350000000000014 26.500000000000004 5514.5000000000009 1406.5000000000002
decision_type=2 2 2 2 2 2 2 2 2 2 2 2 2 2 2 2 2 2 2
left_child=-1 2 5 4 -4 6 -2 8 11 -10 -11 12 13 18 -15 -16 17 -17 -8
right_child=1 -3 3 -5 -6 -7 7 -9 9 10 -12 -13 -14 14 15 16 -18 -19 -20
leaf_value=-0.73656776962726833 0.66345774414224434 -0.11023522252746182 185.28646415669138 19566.488054778107 1.9441222156208857 0.28147420339161772 43757.988929942672 -0.079624438510829787 9654.8551991939494 6908402.4351339433 40474.632608347652 2033.7480680821282 1100674.9754845472 465986.12515400484 -71.601426922831124 354239.53909085551 17928.695084311184 57883.934912856159 385.01533505804633
leaf_weight=63737.9536814288 37351.601393896533 418531.14332139929 28.700180053710938 0.92939454317092796 31.943225860595703 148166.77792281017 0.058842096841381308 3624.7642589665056 0.018105257302515443 0.0045263143256342175 0.0045263143256342175 6.8799978252500296 0.004526314325630664 0.0045263169771470038 0.036210518582319828 0.0045263183029051737 0.018105257302522659 0.013578944302650164 0.60652612522244453
leaf_count=2392706 110974 9301328 164476 489067 2714 1747908 1898 28866 1344 43273 1157 26959 753 823 18 597 369 427 222
internal_value=0 0.167598 0.782154 382.715 88.713 0.657827 2.01843 15.9514 7607.89 1.16458e+06 3.47444e+06 3488.09 16885.7 10277.2 62648.2 37439.6 74950.8 131973 4220.72
internal_weight=0 607744 189212 61.5728 60.6434 189151 40984 3632.42 7.654 0.0271579 0.00905263 7.62684 0.746842 0.742316 0.0769474 0.072421 0.0362105 0.0181053 0.665368
internal_count=14315879 11923173 2621845 656257 167190 1965588 217680 106706 77840 45774 44430 32066 5107 4354 2234 1411 1393 1024 2120
is_linear=0
shrinkage=0.2


Tree=24
num_leaves=20
num_cat=0
split_feature=0 4 1 12 12 12 0 4 4 1 7 7 6 7 6 1 7 1 6
split_gain=1.21378e+06 3.92598e+10 1.16241e+11 1.8788e+11 2.42243e+11 1.20522e+10 6.4492e+08 4.09782e+08 2.31259e+09 3.52632e+09 6.6182e+09 1.5974e+09 3.96292e+09 5.25563e+08 1.32521e+08 1.09216e+08 8.12276e+07 5.85695e+07 4.81069e+07
threshold=9.5000000000000018 12.500000000000002 524.15000000000009 42.609950097075021 121.4981578527355 40.775812560578053 11.500000000000002 21.500000000000004 17.500000000000004 524.15000000000009 53039.500000000007 85468.000000000015 5540.5000000000009 83364.500000000015 5560.5000000000009 524.15000000000009 12946.500000000002 716.05500000000018 5810.5000000000009
decision_type=2 2 2 2 2 2 2 2 2 2 2 2 2 2 2 2 2 2 2
left_child=-1 2 3 5 -5 -2 -3 8 15 10 -10 13 -13 -12 -14 18 -7 -11 -8
right_child=1 6 -4 4 -6 16 7 -9 9 17 11 12 14 -15 -16 -17 -18 -19 -20
leaf_value=-0.036270380997875995 194800.44434545888 1224.7437273319044 -1366.0842795851422 1129677.3452910669 94050.494531947188 681.1685939408851 2158.2151306858354 0.13345916840972283 -153344.22189302134 -6770.6906016608136 -39163.579274368152 -128574.81702248413 -1727.1217107297498 -1021.2435179815083 -25953.96854576105 -857.92268128578803 17107.369361659756 2132.2942206888597 12656.184522537962
leaf_weight=605428.94066174468 0.01806260602774433 17.204482190616545 0.30710947571476399 0.018069056413863152 0.018069056308377185 0.036125212907791138 0.52381558766753444 44351.007082008015 0.018062606373859924 0.036125212907791138 0.018062606453895569 0.018062606453895569 0.018062606453895569 0.072250425815582275 0.018062606453895569 1.3366328774982319 0.018062606453895569 0.16256345808506012 0.018062606454101626
leaf_count=11332103 136907 889391 13678 824737 48440 2822 386636 198727 166838 1854 41269 131839 1118 3369 32321 6305 9613 3254 84658
internal_value=0 1.04743 61478.7 239544 611864 53317.5 0.471737 -0.00315411 -2705.17 -17360 -39205.4 -24938.1 -52085.3 -8649.71 -13840.5 113.059 6156.57 513.57 2508.15
internal_weight=0 44370.9 0.415498 0.108389 0.0361381 0.0722504 44370.5 44353.2 2.23976 0.361252 0.162563 0.144501 0.0541878 0.090313 0.0361252 1.87851 0.0541878 0.198689 0.541878
internal_count=14315879 2983776 1036197 1022519 873177 149342 1947579 1058188 859461 381862 376754 209916 165278 44638 33439 477599 12435 5108 471294
is_linear=0
shrinkage=0.2


Tree=25
num_leaves=20
num_cat=0
split_feature=0 1 11 3 3 12 12 3 12 3 3 5 12 7 7 7 7 7 12
split_gain=4.16912e+06 1.33243e+08 6.6566e+08 3.58229e+08 9.12037e+09 8.517e+09 7.3894e+08 6.03395e+08 6.86068e+08 3.33392e+08 5.21906e+08 3.48887e+08 9.87839e+07 1.38366e+08 5.29357e+08 8.8496e+07 1.31366e+08 6.90034e+07 1.13246e+08
threshold=9.5000000000000018 422.57000000000005 2.5000000000000004 10.500000000000002 3.5000000000000004 98.352903564488116 98.705927558031831 2.5000000000000004 17.045940090968752 8.5000000000000018 2.5000000000000004 1.0000000180025095e-35 58.292808021599647 103022.00000000001 29044.500000000004 21750.000000000004 6521.5000000000009 411615.00000000006 123.21241452091043
decision_type=2 2 2 2 2 2 2 2 2 2 2 2 2 2 2 2 2 2 2
left_child=-1 2 9 4 7 -6 -7 -4 -9 10 -2 -11 -13 14 15 16 -14 -15 -19
right_child=1 -3 3 -5 5 6 -8 8 -10 11 -12 12 13 17 -16 -17 -18 18 -20
leaf_value=-0.029523041023139487 47.519587763694318 1.1374555652791141 604.83498151765161 143.20746398639824 65473.546849659564 467.77456035396602 19364.171255456746 148.84510585879062 18356.6766352913 -185.66222206671935 1020.0619672201755 -944.68388044369738 -998.31666905014617 -999.21417849534544 -13650.823270899407 -781.23157199388993 -8282.2664423303559 -7298.832974310908 -535.87492741402127
leaf_weight=596176.70383407117 154.50162563195323 41370.473757062711 12.747650276596145 7.9465849399566642 0.16556063331972914 0.16555385291576385 0.16555533612913109 0.16555385291576463 0.1655551242415072 55.065963357964137 25.750274432705282 3.3673430827455197 0.1980790048837664 1.7827110439538958 0.19807930398371809 0.59423701465129852 0.19807930398371809 0.19807900488376606 0.19807900488376617
leaf_count=11332103 560587 71574 199380 239648 460335 2596 156177 33 1774 706293 122546 126885 40470 69028 87454 16382 59003 59982 3629
internal_value=0 2.04055 143.79 1209.69 1833.98 28435.6 9916.02 823.771 9252.8 49.0154 186.454 -351.848 -1710.66 -2476.63 -4212.52 -2324.86 -4640.29 -1529.79 -3917.35
internal_weight=0 41634 263.575 21.522 13.5754 0.49667 0.331109 13.0788 0.331109 242.053 180.252 61.8007 6.73469 3.36734 1.18847 0.990395 0.396158 2.17887 0.396158
internal_count=14315879 2983776 2912202 1059943 820295 619108 158773 201187 1807 1852259 683133 1169126 462833 335948 203309 115855 99473 132639 63611
is_linear=0
shrinkage=0.2


Tree=26
num_leaves=20
num_cat=0
split_feature=0 1 5 3 7 6 3 6 8 12 6 6 7 8 8 7 8 3 8
split_gain=7.6492e+06 7.26157e+10 8.17576e+10 1.01393e+11 3.69005e+11 1.3887e+10 2.94333e+10 1.00323e+10 2.07815e+10 3.65693e+09 1.69408e+09 8.27978e+08 7.95745e+08 7.90001e+08 1.02445e+09 1.6776e+08 8.60638e+07 2.84762e+07 8.81896e+06
threshold=9.5000000000000018 422.57000000000005 1.0000000180025095e-35 1.5000000000000002 905210.50000000012 1871.5000000000002 1.5000000000000002 552.50000000000011 596.50000000000011 82.33931536488366 582.50000000000011 493.50000000000006 103022.00000000001 459.50000000000006 30.500000000000004 211345.00000000003 538.50000000000011 1.5000000000000002 215.50000000000003
decision_type=2 2 2 2 2 2 2 2 2 2 2 2 2 2 2 2 2 2 2
left_child=-1 2 3 7 -5 9 12 11 -9 -4 -6 -2 -7 14 -11 -14 17 -15 -13
right_child=1 -3 5 4 10 6 -8 8 -10 13 -12 18 15 16 -16 -17 -18 -19 -20
leaf_value=-0.023953943010238083 50346.999104330142 2.0875276802039262 -95961.712712907509 1031316.9919223499 8713.2296078987802 49297.187630933993 270702.40635178232 275050.37512467086 5380.0784963260085 -2729.7143657818801 85708.145443332091 953.37387040735507 -783.18911031371476 -854.63460658184306 -62603.956381171723 20199.915722227586 -12536.702282095735 7295.984253393568 6508.6257230918309
leaf_weight=588744.34962420084 0.02286124969964376 19295.309265994729 0.022861249761263025 0.022861249744565271 0.022861249744991596 0.02286124974489212 0.02286124974489212 0.02286124974489212 0.02286124974489212 0.02286124974489212 0.02286124974489212 0.02286124974489212 0.045722499489784241 0.068583749234676361 0.02286124974489212 0.02286124974489212 0.02286124974489212 0.02286124974489212 0.02286124974489212
leaf_count=11332103 39213 71574 304912 1241559 21947 69255 603895 206474 10672 11969 110125 1855 12502 6052 189023 27934 26803 21714 6298
internal_value=0 4.02283 77786.2 182997 375246 13041 67726.6 67647.9 140215 -21137.5 47210.7 19269.7 16982.7 -10448.3 -32666.8 6211.18 -1560.92 1183.02 3731
internal_weight=0 19295.8 0.480086 0.18289 0.0685837 0.297196 0.114306 0.114306 0.0457225 0.18289 0.0457225 0.0685837 0.091445 0.160029 0.0457225 0.0685837 0.114306 0.091445 0.0457225
internal_count=14315879 2983776 2912202 1638143 1373631 1274059 713586 264512 217146 560473 132072 47366 109691 255561 200992 40436 54569 27766 8153
is_linear=0
shrinkage=0.2


Tree=27
num_leaves=20
num_cat=0
split_feature=0 5 9 11 4 6 2 6 4 7 6 2 10 12 7 2 6 6 7
split_gain=3.49166e+07 1.23764e+08 7.42254e+08 1.94605e+09 1.48447e+09 3.41476e+09 1.59031e+10 1.31713e+09 7.38463e+08 1.50718e+09 5.80893e+08 3.81879e+08 2.59206e+08 2.43874e+08 2.23822e+08 9.58837e+07 9.10649e+07 8.62881e+08 6.66289e+07
threshold=9.5000000000000018 1.0000000180025095e-35 24.500000000000004 2.5000000000000004 22.500000000000004 1499.5000000000002 4.5000000000000009 3577.5000000000005 22.500000000000004 1911.5000000000002 4567.5000000000009 2.5000000000000004 1.0000000180025095e-35 23.241253460495731 90163.000000000015 5.5000000000000009 5928.5000000000009 6118.5000000000009 105469.50000000001
decision_type=2 2 2 2 2 2 2 2 2 2 2 2 2 2 2 2 2 2 2
left_child=-1 2 -2 8 5 -5 -7 -8 9 10 -4 13 -6 14 -11 -9 -15 -18 -16
right_child=1 -3 3 4 12 6 7 15 -10 11 -12 -13 -14 16 18 -17 17 -19 -20
leaf_value=-0.019383839219371656 16.634884570185111 3.902531119891937 101.81984080126787 9351.6414904207813 2764.4879252334163 290131.89723011071 87153.357044587261 26105.125390526344 -20.322428280426596 39107.142917736281 40243.555465909885 2269.180576490196 34910.631293255217 4277.1923380244989 -748.12444627764523 4543.4640974481745 55722.879867548101 3442.9050412727152 15895.231671736206
leaf_weight=582779.77051740023 398.67877393111746 2401.9012492853053 17.001114435588175 0.19592705729400606 0.37123512805714753 0.010316004939459056 0.010312879672962794 0.010312231032746588 32.126046897519359 0.014432221002078971 0.014432197220648812 8.6015833601394274 0.010312104674262912 3.8389620824622015 0.014432185329496861 0.041247896415319119 0.014432185329496749 0.10102529730647802 0.028864370658993721
leaf_count=11332103 181832 1305229 21451 68091 5500 181749 74609 23648 86747 7783 7276 693510 206 282307 474 23724 7768 6557 5315
internal_value=0 22.1218 117.03 758.415 11647.5 23052.2 60236.5 21906.4 643.862 1364.02 135.867 3020.75 3633.3 4632.04 17537.4 8855.88 4443.64 9977.9 10347.4
internal_weight=0 2862.99 461.084 62.405 0.649663 0.268116 0.072189 0.061873 61.7553 29.6293 17.0155 12.6137 0.381547 4.01215 0.0577288 0.0515601 3.95442 0.115457 0.0432966
internal_count=14315879 2983776 1678547 1496715 377527 371821 303730 121981 1119188 1032441 28727 1003714 5706 310204 13572 47372 296632 14325 5789
is_linear=0
shrinkage=0.2


Tree=28
num_leaves=20
num_cat=0
split_feature=0 11 1 9 7 12 3 7 7 12 12 7 9 12 9 9 1 4 3
split_gain=1.79875e+07 1.44502e+09 3.18212e+10 1.05453e+12 4.26641e+10 3.20529e+10 7.7777e+09 1.13881e+11 4.27932e+10 6.88787e+09 1.8822e+09 5.40828e+09 8.11641e+10 7.59912e+09 4.66572e+09 1.90992e+08 1.78088e+10 2.7327e+11 3.04506e+10
threshold=9.5000000000000018 2.5000000000000004 524.15000000000009 24.500000000000004 792954.50000000012 113.37715583787003 5.5000000000000009 4691.5000000000009 105469.50000000001 65.118289893765834 86.007659173096869 211345.00000000003 23.500000000000004 45.869085132708157 19.500000000000004 27.500000000000004 524.15000000000009 22.500000000000004 8.5000000000000018
decision_type=2 2 2 2 2 2 2 2 2 2 2 2 2 2 2 2 2 2 2
left_child=-1 15 3 4 5 6 10 -8 -9 -6 11 12 13 -3 -12 16 17 -2 -19
right_child=1 2 -4 -5 9 -7 7 8 -10 -11 14 -13 -14 -15 -16 -17 -18 18 -20
leaf_value=-0.015651459975438757 3105749.4118550066 785360.55735625455 389.94220910719764 5804708.4303778084 574621.25281096878 1132112.044454173 5494.6394039470251 2347620.9795143111 729851.31688703434 1294732.6671430257 428565.99231407326 9177.492349777076 14659.234402394066 1485606.6545498117 8340.5774555762364 1.1810624643868135 -9.4560924942438938 847891.83243809163 6759.5303781210278
leaf_weight=577996.59869706817 0.0011997749161002371 0.0010626968782024271 9.8223911278395928 0.0012751373034206029 0.0010626133467264145 0.0010626158589532855 0.027627932535829732 0.0010628633132734335 0.0017003467848839562 0.0010626133467264154 0.0010626139747831323 0.055680911415240786 0.027628013555137443 0.0014877425937855917 0.19488326720431015 1358.1235152216432 3.873178452159495 0.0018004659338544107 0.039293833415769086
leaf_count=11332103 136563 14202 25029 705073 15382 30719 12014 107059 54269 30924 9881 12815 9002 35828 27077 1743460 2523 4803 7153
internal_value=0 22.9102 2401.71 64804.2 41597.1 35538.2 31805.8 127932 1.35212e+06 934677 21439.1 46131.5 114314 1.19383e+06 10619.5 5.20236 1400.03 130477 43612.1
internal_weight=0 1372.18 10.1391 0.316659 0.315384 0.313259 0.312196 0.0303911 0.00276321 0.00212523 0.281805 0.0858594 0.0301785 0.00255044 0.195946 1362.04 3.91547 0.0422941 0.0410943
internal_count=14315879 2983776 1089274 1064245 359172 312866 282147 173342 161328 46306 108805 71847 59032 50030 36958 1894502 151042 148519 11956
is_linear=0
shrinkage=0.2


Tree=29
num_leaves=20
num_cat=0
split_feature=0 9 12 0 1 3 10 9 8 8 12 12 9 3 12 9 3 9 3
split_gain=2.34648e+07 7.03138e+07 1.75707e+08 4.7752e+06 1.42429e+09 2.7304e+12 8.9059e+11 6.91687e+11 3.92822e+12 6.00496e+11 2.11102e+11 4.63239e+10 1.99395e+11 2.269e+11 5.31494e+10 6.08057e+09 8.71966e+09 1.02635e+10 1.8112e+10
threshold=12.500000000000002 50.500000000000007 13.998886532288294 9.5000000000000018 524.15000000000009 9.5000000000000018 1.0000000180025095e-35 30.500000000000004 172.50000000000003 333.50000000000006 48.374627122041034 88.501200456330807 37.500000000000007 1.5000000000000002 111.97663979123293 50.500000000000007 8.5000000000000018 43.500000000000007 4.5000000000000009
decision_type=2 2 2 2 2 2 2 2 2 2 2 2 2 2 2 2 2 2 2
left_child=3 2 -2 -1 5 7 9 8 -5 -7 -9 15 14 -14 -13 16 17 -12 -19
right_child=1 -3 -4 4 -6 6 -8 10 -10 -11 11 12 13 -15 -16 -17 -18 18 -20
leaf_value=-0.012615230007006857 22.28237932278935 9.0352083120049134 2136.0922390434021 472275.4005693408 2.0800660345645121 -9977267.9952179752 -93884.76125368342 2257606.6327470802 13382345.706132196 -4437430.2179328147 36906.739291397178 1437846.4236374004 392704.12232577568 4087984.5810644091 22219.652600367121 298.901991920233 -124186.78756848648 1033736.8658343232 154252.63180891707
leaf_weight=574162.96916511585 4.7104396820238241 23.55219841224508 2.3615465072056523 0.01289756479229609 2533.481805936387 0.0013084743992236567 0.0011056083827156726 0.0016618485595819568 0.0010171012243063169 0.0019476587104350078 0.13484873027804298 0.0011088807497668792 0.0016628303432914744 0.0011072449347249648 0.024501053646531545 4.710439682006899 0.011973879300029466 0.0010161195142811838 0.011973879300057888
leaf_count=11332103 10 502 738 126814 57542 768954 67932 204236 293387 589043 152999 66483 88275 221460 27464 154411 86527 63566 13433
internal_value=0 175.098 728.146 0.0256507 8.68106 3408.75 -4.99832e+06 7848.18 1.41595e+06 -6.66361e+06 3849.81 3085.23 257865 1.86977e+06 83514.7 1600.57 39967 53262.3 223049
internal_weight=0 30.6242 7.07199 576701 2538.4 4.91857 0.00436174 4.91421 0.0139147 0.00325613 4.90029 4.89863 0.02838 0.00277008 0.0256099 4.87025 0.159813 0.147839 0.01299
internal_count=14315879 1250 748 14314629 2982526 2924984 1425929 1499055 420201 1357997 1078854 874618 403682 309735 93947 470936 316525 229998 76999
is_linear=0
shrinkage=0.2


Tree=30
num_leaves=20
num_cat=0
split_feature=0 11 6 9 1 7 4 1 3 7 3 12 7 6 12 6 7 7 6
split_gain=1.26907e+07 4.46182e+08 5.45964e+11 6.30195e+10 7.09107e+11 5.73691e+11 1.85272e+10 1.14511e+11 6.64545e+10 1.28831e+11 8.71713e+10 3.81862e+10 7.08646e+10 3.23404e+10 4.73291e+10 8.82688e+10 1.74813e+10 8.45022e+09 4.35017e+09
threshold=9.5000000000000018 1.0000000180025095e-35 6257.5000000000009 36.500000000000007 716.05500000000018 10949.000000000002 22.500000000000004 716.05500000000018 8.5000000000000018 10219.500000000002 9.5000000000000018 66.560287353992237 31022.500000000004 2003.5000000000002 120.02656111070471 5957.5000000000009 204833.00000000003 30385.000000000004 655.50000000000011
decision_type=2 2 2 2 2 2 2 2 2 2 2 2 2 2 2 2 2 2 2
left_child=-1 -2 3 4 5 -3 7 8 9 -5 -10 12 17 16 15 -15 18 -11 -13
right_child=1 2 -4 6 -6 -7 -8 -9 10 11 -12 13 -14 14 -16 -17 -18 -19 -20
leaf_value=-0.010153253812373903 2.5120239179283281 388868.18499913462 3722319.3530765967 2228089.0707155489 1241.5875482909996 5868467.3393585058 -28.920646237834347 8954.8905753483323 -1603698.4571105179 667255.96649348619 505698.31661502039 337804.17630950734 1978000.8618454465 2304095.2760282825 125598.30673694913 164122.524401253 811966.4216223266 -2406.1501001158931 77022.182547834745
leaf_weight=571091.6417998902 2828.9366887704532 0.0015012806927491287 0.0015765977495892916 0.0015765977947132031 0.034638648101690706 0.0015567608666060551 52.683468301026096 0.35572418431728536 0.0014960416592963528 0.0015190576850727692 0.0016456458362198272 0.0030266073572420204 0.0016111218067134496 0.0015535817237920637 0.0029920833185315149 0.0015305656979762716 0.0015650897366867892 0.0014960416592657566 0.016548522355151366
leaf_count=11332103 704976 24087 187735 73382 4166 280111 84744 21280 382005 30660 853742 28184 99700 94739 9907 9707 41566 428 52657
internal_value=0 13.2948 587.594 477.119 258978 3.17837e+06 293.521 43597.1 380652 463326 -498776 375949 907177 285651 692304 1.24209e+06 168769 334981 117343
internal_weight=0 2882.05 53.115 53.1135 0.0376967 0.00305804 53.0758 0.392285 0.036561 0.0334193 0.00314169 0.0318427 0.00462622 0.0272165 0.00607623 0.00308415 0.0211402 0.0030151 0.0195751
internal_count=14315879 2983776 2278800 2091065 308364 304198 1782701 1697957 1676677 440930 1235747 367548 130788 236760 114353 104446 122407 31088 80841
is_linear=0
shrinkage=0.2


Tree=31
num_leaves=20
num_cat=0
split_feature=1 4 9 12 12 6 12 8 5 8 7 12 12 9 7 7 12 8 1
split_gain=1.18253e+06 4.08147e+07 7.81535e+08 1.02402e+09 1.43124e+08 4.22393e+07 1.77008e+08 5.74665e+08 1.32171e+08 8.4606e+07 2.65021e+08 3.56713e+07 1.22353e+08 8.39625e+08 3.88972e+07 2.8164e+08 2.43703e+07 2.12022e+07 2.95068e+07
threshold=716.05500000000018 4.5000000000000009 25.500000000000004 92.978221579253912 102.213915019629 6012.5000000000009 98.705927558031831 357.50000000000006 1.0000000180025095e-35 35.500000000000007 351303.00000000006 117.93758154903141 122.30947749439173 49.500000000000007 18456.000000000004 4691.5000000000009 93.627433292705788 32.500000000000007 989.08500000000015
decision_type=2 2 2 2 2 2 2 2 2 2 2 2 2 2 2 2 2 2 2
left_child=-1 2 3 -2 16 11 7 8 -7 -10 -11 17 13 -13 15 -14 -5 18 -4
right_child=1 -3 5 4 -6 6 -8 -9 9 10 -12 12 14 -15 -16 -17 -18 -19 -20
leaf_value=0.018612670386204427 15409.273544435446 0.59895499322792312 2315.5243816233865 91.331787101086533 6547.5709885118176 -217.93190933167517 472.55963170442357 95832.127655182063 8242.5242437496163 82381.580625026196 -128.56152636127024 109989.05716686544 -85.332089340638234 -95.036591350000833 729.44453795781885 64215.479559980326 2349.4413275548695 45.386602428150361 -30.746861015862692
leaf_weight=557309.0603411831 0.28971242916315887 16182.179048618205 0.39373847062554945 0.57060497999191262 0.2217715182494544 0.026589313408185065 0.26088548660868621 0.0032056122571649031 0.0062118405352173944 0.0031220647186560591 0.0031065030835293328 0.0032476017218893141 0.018705599726437944 0.018899553164518634 0.75311044257472171 0.0031892721377998296 0.28749712463468313 208.98365657675845 0.47071823576007388
leaf_count=14205534 674 94403 525 9 218 107 124 106 9 60 6 138 44 169 530 107 103 12729 284
internal_value=0 1.742 88.8613 4851.02 2018.42 57.9428 2417.16 14428.9 7743.02 24758.2 41229.6 54.5479 1389.9 16047.4 971.034 9280.92 847.885 49.4753 1037.92
internal_weight=0 16394.5 212.318 1.36959 1.07987 210.948 0.303121 0.0422353 0.0390297 0.0124404 0.00622857 210.645 0.797152 0.0221472 0.775005 0.0218949 0.858102 209.848 0.864457
internal_count=14315879 110345 15942 1004 330 14938 412 288 182 75 66 14526 988 307 681 151 112 13538 809
is_linear=0
shrinkage=0.2


Tree=32
num_leaves=20
num_cat=0
split_feature=1 4 9 7 9 7 7 3 12 9 9 9 12 12 9 7 6 6 12
split_gain=1.63298e+06 3.07915e+08 3.02081e+10 2.78866e+10 1.66808e+12 3.05036e+09 3.05556e+10 4.93326e+09 9.75707e+08 5.2248e+10 4.03425e+08 3.41669e+08 2.51735e+09 2.51076e+08 2.21608e+08 1.81165e+08 2.10923e+07 1.30894e+07 3.75911e+06
threshold=716.05500000000018 4.5000000000000009 30.500000000000004 1779.0000000000002 29.500000000000004 58364.000000000007 22718.000000000004 6.5000000000000009 78.958082633734904 46.500000000000007 49.500000000000007 43.500000000000007 96.300718359053036 94.625172750000473 47.500000000000007 107919.00000000001 351.50000000000006 329.50000000000006 51.211540343770217
decision_type=2 2 2 2 2 2 2 2 2 2 2 2 2 2 2 2 2 2 2
left_child=-1 2 3 -2 -5 6 7 11 14 -10 -11 12 13 -4 15 16 -7 -13 -16
right_child=1 -3 5 4 -6 8 -8 -9 9 10 -12 17 -14 -15 18 -17 -18 -19 -20
leaf_value=0.014752888727170253 3528.0161556764142 0.69145189653577455 23466.090617215512 7756471.2297340948 12571.542057276823 -9.6754318173450233 614798.66974719684 187480.63188925217 863589.11835391936 50885.324359083315 -280.8346289451751 -38.265228165808928 202038.21052425037 -16.276362558322976 1.3135095694320675 8050.4715412596743 2643.5363283393417 4605.1241087278495 604.49640438204472
leaf_weight=561913.52086981828 0.036396455022958629 11613.416595204028 0.036435863450604136 0.0011477126299723741 0.036416159235159284 0.2398437455995075 0.003454463083148839 0.0063846527076596707 0.0028550607876242353 0.0063829547803050104 0.17963221171370647 0.072792910775858477 0.0028905394610774229 0.036416159235159284 30.739822869326936 0.23967283412981588 0.23955760867102072 0.036439250888560717 0.41891456940545779
leaf_count=14205534 51 94403 486 1977 234 39 2650 1415 1082 220 2242 61 199 15 977 840 300 1738 1416
internal_value=0 2.40747 618.722 128291 249176 326.031 25276.6 14634.4 174.449 14507.1 1474.89 8668.4 18990.8 11728.1 89.5308 3560.74 1316.14 1510.74 9.42302
internal_weight=0 11645.8 32.3355 0.0739603 0.0375639 32.2615 0.194814 0.191359 32.0667 0.18887 0.186015 0.184975 0.0757426 0.072852 31.8778 0.719074 0.479401 0.109232 31.1587
internal_count=14315879 110345 15942 2262 2211 13680 6564 3914 7116 3544 2462 2499 700 501 3572 1179 339 1799 2393
is_linear=0
shrinkage=0.2


Tree=33
num_leaves=20
num_cat=0
split_feature=0 5 1 3 0 8 3 2 6 3 6 6 3 0 6 6 8 6 6
split_gain=2.19103e+07 5.48968e+08 6.15735e+12 9.19453e+12 3.67206e+09 1.13708e+10 1.40668e+10 3.99227e+09 8.84261e+09 1.48219e+09 6.65103e+09 7.80221e+09 9.94671e+08 3.71746e+08 7.71676e+08 3.95695e+08 2.63799e+08 1.16578e+08 8.24216e+07
threshold=9.5000000000000018 1.0000000180025095e-35 716.05500000000018 8.5000000000000018 12.500000000000002 475.50000000000006 8.5000000000000018 1.5000000000000002 1852.5000000000002 8.5000000000000018 4265.5000000000009 1406.5000000000002 10.500000000000002 12.500000000000002 4998.5000000000009 2003.5000000000002 330.50000000000006 6277.5000000000009 4567.5000000000009
decision_type=2 2 2 2 2 2 2 2 2 2 2 2 2 2 2 2 2 2 2
left_child=-1 2 3 -2 5 7 -7 8 -4 10 11 -9 -11 17 15 -15 -12 -3 -14
right_child=1 13 4 -5 -6 6 -8 9 -10 12 16 -13 18 14 -16 -17 -18 -19 -20
leaf_value=-0.044879614053442957 20160716.538352832 3.8194954506585219 -6014.3627723188893 -1403428.0148527718 7.1953267402467436 971941.37430307607 -33504.673511525492 76538.040521698364 685474.93737704121 -161738.31542792806 103067.62116013243 772884.72742245253 -1346.7561130737813 47422.789890103777 68170.172961117481 3211.104536379436 4836.7992960157944 1855.1689227298809 -46582.781937740416
leaf_weight=570695.69246005057 0.0015027739535846641 2018.3676774950945 0.0019952901917904831 0.0016696263072514296 41.902066145295976 0.001176202387805953 0.0010565753237413308 0.0016436228379016933 0.0011755349777584972 0.0017608712651119183 0.0011739842629734992 0.0010578547611652901 0.019011462182436968 0.0087721906602372668 0.008772190660238266 0.10526628792285919 0.015960308186534072 1.3614259958267201 0.0017603146204061863
leaf_count=11332103 519084 1207347 1244 1137680 217 2689 2061 1861 2468 4276 1558 2922 1275 191 92 256 672 97343 540
internal_value=0 20.6096 736.683 8.81156e+06 70.3767 55488.3 496153 33882.7 250345 17682.8 57552.4 349216 -17414.9 5.73648 11009 6612 11567.2 5.06742 -5180.31
internal_weight=0 2061.8 41.953 0.0031724 41.9498 0.047772 0.00223278 0.0455392 0.00317083 0.0423684 0.0198358 0.00270148 0.0225326 2019.85 0.122811 0.114038 0.0171343 2019.73 0.0207718
internal_count=14315879 2983776 1678547 1656764 21783 21566 4750 16816 3712 13104 7013 4783 6091 1305229 539 447 2230 1304690 1815
is_linear=0
shrinkage=0.2


Tree=34
num_leaves=20
num_cat=0
split_feature=0 6 5 3 6 12 1 6 6 9 1 7 3 7 7 3 6 1 9
split_gain=3.61829e+08 2.2093e+10 3.11953e+09 1.78845e+10 2.33413e+10 7.69905e+09 8.99622e+09 4.92834e+09 2.40723e+09 3.53991e+08 1.72158e+09 7.554e+10 1.75251e+10 3.53337e+08 3.51279e+08 9.618e+07 4.98055e+09 6.58197e+09 3.01687e+09
threshold=9.5000000000000018 6257.5000000000009 1.0000000180025095e-35 2.5000000000000004 2049.5000000000005 12.013952747801655 989.08500000000015 4609.5000000000009 3372.5000000000005 26.500000000000004 716.05500000000018 151872.00000000003 6.5000000000000009 91995.500000000015 211345.00000000003 9.5000000000000018 5435.5000000000009 989.08500000000015 49.500000000000007
decision_type=2 2 2 2 2 2 2 2 2 2 2 2 2 2 2 2 2 2 2
left_child=-1 2 3 5 -5 -2 -7 8 -6 10 11 12 13 -4 -10 -11 18 -18 -17
right_child=1 -3 9 4 7 6 -8 -9 14 15 -12 -13 -14 -15 -16 16 17 -19 -20
leaf_value=-0.036693247132356561 -156.94369285881146 170685.16602677395 15213.581766860947 138382.15043718126 45334.936977818608 -97315.041172029756 -840.79344317830919 67658.508885264091 18735.978167000689 156.99640732415708 -28.05170329368552 1367044.0506013248 659906.3487669162 1177.9535463239879 3664.7867054452981 -30528.843560760899 -520666.28038137686 49760.783193019706 172.58848630463538
leaf_weight=559757.84579689719 0.76617485285361808 0.030501807643750989 0.10789185750763763 0.077326335013080616 0.07732633501291275 0.07732633501291275 0.07732633501291275 0.07732633501291275 0.07732633501291275 44.933237220568905 1.4370791050605474 0.0016472039278596631 0.0016472039278596631 0.2141365110874176 0.309305340051651 0.13130455100933858 0.0016959046031089766 0.001547397047891419 5.1279650926589966
leaf_count=11332103 4100 192550 27891 494801 231112 344356 2139 343518 131396 476279 2184 59684 50296 4814 40967 281838 69761 330 225760
internal_value=0 519.973 422.953 9295.6 35596.3 -8373.2 -49077.9 20912.7 13121.7 160.07 2946.07 16083.9 9208.8 5880.43 6679.02 62.2524 -746.706 -248512 -593.913
internal_weight=0 53.5281 53.4976 1.53944 0.618611 0.920828 0.154653 0.541284 0.463958 51.9582 1.7624 0.325323 0.323676 0.322028 0.386632 50.1958 5.26251 0.0032433 5.25927
internal_count=14315879 2983776 2791226 1592389 1241794 350595 346495 746993 403475 1198837 144869 142685 83001 32705 172363 1053968 577689 70091 507598
is_linear=0
shrinkage=0.2


Tree=35
num_leaves=20
num_cat=0
split_feature=0 1 9 2 9 12 12 12 1 1 4 0 0 9 1 4 8 12 12
split_gain=2.80781e+08 6.30723e+11 2.23582e+08 1.22824e+08 2.98042e+06 6.04746e+06 1.58084e+06 3.36635e+06 955117 836152 825898 2.41321e+06 1.56406e+08 3.34822e+08 5.26135e+08 1.5922e+08 4.26386e+08 8.27971e+07 1.72622e+08
threshold=9.5000000000000018 716.05500000000018 34.500000000000007 1.5000000000000002 28.500000000000004 82.632268128740535 79.860315329806284 13.998886532288294 25.085000000000004 7.1650000000000009 3.5000000000000004 3.5000000000000004 7.5000000000000009 26.500000000000004 24.425000000000004 1.0000000180025095e-35 623.50000000000011 34.229868589473035 60.365927367395798
decision_type=2 2 2 2 2 2 2 2 2 2 2 2 2 2 2 2 2 2 2
left_child=8 -2 4 -4 5 6 7 -3 9 -1 11 -11 13 14 15 16 -13 -17 -19
right_child=1 2 3 -5 -6 -7 -8 -9 -10 10 -12 12 -14 -15 -16 17 -18 18 -20
leaf_value=-0.39823644859495144 1953217.2401304846 12.790879903029852 470.23574875997122 2303.3667177499533 47.8390818787326 412.57496606718081 17.476132033404884 316.27142269756382 -0.26190342082513585 0.74766751553626154 0.28276295747444741 15017.919864047633 -0.82203981456032915 150.80824325705973 -1.3675634397627678 1064.3907460647986 471.68553769857726 9943.8007160007837 3131.9839528830594
leaf_weight=57265.488048882486 0.0066152389005215131 2.9240682125091522 2.9240682125091535 2.9240682143370345 35.088818557778708 2.9240780574480842 5.8481367887121118 2.9240751423023643 310167.67398305953 27890.124280823089 151700.8850937688 0.16121010277255665 3839.0518560349269 107.04341065883651 3.7078294980286586 0.64483989672659481 0.16120995581150055 0.16121002929209316 1.9345197636603755
leaf_count=2045239 2940787 154 6658 23000 4776 3845 305 4251 7415391 102294 1670202 687 46340 49520 120 209 17 474 1610
internal_value=0 449.583 217.066 1386.8 79.4506 155.318 91.0038 164.531 -0.0298811 0.268969 0.477136 1.40313 6.0279 237.082 1601.03 3540.78 7744.81 3046.19 3655.97
internal_weight=0 55.5639 55.5573 5.84814 49.7092 14.6204 11.6963 5.84814 550977 240809 183544 31843 3952.87 113.814 6.77082 3.06299 0.32242 2.74057 2.09573
internal_count=14315879 2983776 42989 29658 13331 8555 4710 4405 11332103 3916712 1871473 201271 98977 52637 3117 2997 704 2293 2084
is_linear=0
shrinkage=0.2


Tree=36
num_leaves=20
num_cat=0
split_feature=0 4 4 1 4 1 0 11 6 1 7 7 6 6 7 8 6 6 1
split_gain=2.31669e+08 1.0743e+12 771479 608726 821433 2.00172e+06 2.87793e+06 2.25075e+07 7.73683e+08 3.34621e+08 2.17407e+07 2.5098e+07 4.35966e+07 1.75537e+07 3.93253e+07 1.24502e+07 4.5904e+06 1.73083e+08 4.06794e+08
threshold=9.5000000000000018 18.500000000000004 21.500000000000004 14.305000000000001 3.5000000000000004 8.9250000000000025 3.5000000000000004 2.5000000000000004 6118.5000000000009 9.3550000000000022 276449.00000000006 755323.00000000012 6068.5000000000009 1292.5000000000002 800260.50000000012 590.50000000000011 3947.5000000000005 1587.5000000000002 9.5150000000000023
decision_type=2 2 2 2 2 2 2 2 2 2 2 2 2 2 2 2 2 2 2
left_child=2 -2 3 4 5 -1 -7 -8 10 -10 15 12 -12 -13 -15 16 17 -9 -19
right_child=1 -3 -4 -5 -6 6 7 8 9 -11 11 13 -14 14 -16 -17 -18 18 -20
leaf_value=0.12138222445472394 1656841.6885619073 -1355.8838422468871 0.47197334339719765 -0.29716356668468058 -0.11398802308691663 1.7850140709746807 4.9189200355597178 33.642015830489242 3199.05027042443 15175.469836027065 4316.7494120603924 60.633952618850714 -6.1636630685659339 168.51031592152333 3724.1438268976854 1206.3738045834987 22.554177863939955 708.87445031264485 11148.323743727962
leaf_weight=28909.262774171752 0.015649656397043965 11.503456619412416 103493.58131394751 291493.24500887113 87724.226645035276 8701.1117892051097 1807.91792449065 32.100947499275208 0.1866334080696096 0.1866334080696106 0.18663340806961004 1.6797006726264956 0.1866334080696106 0.37326681613922108 0.1866334080696106 0.37326681613922019 76.892968058586121 0.74653363227844138 0.1866334080696106
leaf_count=330007 2087360 896416 935923 7535931 2459945 35568 17065 2350 81 368 1746 362 6 182 1670 881 3532 2237 4249
internal_value=0 896.914 -0.0169899 -0.137837 0.227118 0.984064 3.33191 10.3378 96.816 9187.26 66.7649 636.961 2155.29 383.906 1353.72 53.2577 49.3422 111.696 2796.76
internal_weight=0 11.5191 522243 418749 127256 39531.6 10622.3 1921.2 113.286 0.373267 112.913 2.61287 0.373267 2.2396 0.5599 110.3 109.927 33.0341 0.933167
internal_count=14315879 2983776 11332103 10396180 2860249 400304 70297 34729 17664 449 17215 3966 1752 2214 1852 13249 12368 8836 6486
is_linear=0
shrinkage=0.2


Tree=37
num_leaves=20
num_cat=0
split_feature=3 4 9 0 4 6 4 9 0 2 9 6 12 9 9 3 9 9 4
split_gain=1.56361e+06 2.86556e+06 1.39538e+07 7.24301e+07 4.0148e+07 7.07051e+07 1.50682e+07 1.05165e+07 7.80203e+06 2.11748e+07 4.00008e+06 3.47535e+06 4.6966e+06 3.3464e+06 2.9886e+06 7.60313e+06 2.74027e+06 1.43107e+06 2.0242e+07
threshold=9.5000000000000018 4.5000000000000009 50.500000000000007 2.5000000000000004 1.0000000180025095e-35 4046.0000000000005 2.5000000000000004 65.500000000000014 3.5000000000000004 2.5000000000000004 75.500000000000014 1941.5000000000002 106.59304724268965 32.500000000000007 57.500000000000007 10.500000000000002 53.500000000000007 17.500000000000004 13.500000000000002
decision_type=2 2 2 2 2 2 2 2 2 2 2 2 2 2 2 2 2 2 2
left_child=-1 2 8 10 7 -6 -7 -5 -2 13 14 -12 -13 -10 15 16 -4 18 -3
right_child=1 17 3 4 5 6 -8 -9 9 -11 11 12 -14 -15 -16 -17 -18 -19 -20
leaf_value=-0.012817790634351468 1.1450683109228632 19452.559981659026 498.8091307802369 356.95179938851629 12270.387166489789 5151.6358394096897 -22.004395191895526 3885.9813614170266 84.93701328792757 208.43660033921083 207.34993401693833 1443.490263536477 276.74441628046134 9.2086455977319517 62.168123747619454 102.60670593823392 1272.0267290775573 1.2467263837444722 326.94023981460373
leaf_weight=479683.54743871326 912.93853802853585 0.0022413733368245028 0.4171606302261418 0.13510796427720961 0.045035988092479329 0.045035988092422485 0.045035988092422485 0.045035988092422485 27.152745692483194 27.155847478910061 0.87859249114990123 0.27021592855453491 0.2820526659488678 166.27280238624709 12.587432056665419 2.285015344619751 0.32708865404129028 7030.9488378749347 0.17812327075532564
leaf_count=12864218 515 2787 21 21803 110814 19496 19451 16119 938 8685 18 34 9 3651 145 37 27 1233608 13503
internal_value=0 2.77546 12.0267 189.963 3193.84 5800.01 2564.82 1239.21 9.30118 43.0575 134.414 454.472 847.614 19.8393 105.089 283.437 838.629 1.26118 564.612
internal_weight=0 8182.01 1150.88 17.3628 0.315252 0.135108 0.090072 0.180144 1133.52 220.581 17.0476 1.43086 0.552269 193.426 15.6167 3.02926 0.744249 7031.13 0.180365
internal_count=14315879 1451661 201763 187974 187683 149761 38947 37922 13789 13274 291 61 43 4589 230 85 48 1249898 16290
is_linear=0
shrinkage=0.2


Tree=38
num_leaves=20
num_cat=0
split_feature=1 4 4 6 5 4 3 5 3 2 7 6 6 6 7 2 7 6 8
split_gain=2.15564e+06 1.24216e+07 1.53992e+09 6.92046e+09 9.42175e+07 5.09153e+06 6.23067e+06 1.90097e+07 1.29867e+07 3.65412e+07 3.40266e+07 2.8496e+08 1.372e+07 1.03784e+08 9.11205e+06 7.09368e+06 1.30206e+07 2.59103e+07 5.81099e+06
threshold=716.05500000000018 3.5000000000000004 2.5000000000000004 54.500000000000007 1.0000000180025095e-35 21.500000000000004 9.5000000000000018 1.0000000180025095e-35 10.500000000000002 1.5000000000000002 36169.500000000007 2989.5000000000005 1816.5000000000002 1113.5000000000002 8741.5000000000018 4.5000000000000009 905210.50000000012 5208.5000000000009 477.50000000000006
decision_type=2 2 2 2 2 2 2 2 2 2 2 2 2 2 2 2 2 2 2
left_child=-1 2 3 -2 -4 -3 -7 8 9 -8 11 14 13 -12 -11 16 17 -14 -10
right_child=1 5 4 -5 -6 6 7 -9 18 10 12 -13 15 -15 -16 -17 -18 -19 -20
leaf_value=-0.019828646591421521 215.59508550193777 -0.87096745311251922 -2.6636322927000138 128245.07303263746 4032.5669904854003 9.4460210977014771 -37.322794558572113 55.763948061464376 -73.140559528198665 -65.416145821947154 23090.449939693848 39843.81749927537 19536.675548180006 494.17651185559129 4258.2027690055102 644.6595763123978 1709.0915550723855 -684.89266971042821 1170.092265650155
leaf_weight=478286.6586425018 0.093597208709682966 4122.7979917172033 23.730620992448046 0.020605827709123392 0.2337284202806903 1987.0074224202772 0.42107675154045121 56.426186382948927 0.70083945989077712 0.036576332099294714 0.0099262676096794761 0.0089851279224510555 0.0051800540886539626 0.044941414373082175 0.041756666621924343 0.23151182703747081 0.044941414147615433 0.0049628322012722492 0.19147063164016942
leaf_count=14205534 137 63475 2029 10134 1349 29529 233 2008 623 42 93 125 70 35 105 126 17 31 184
internal_value=0 3.7359 147.106 23316.1 36.6927 3.17621 11.3348 75.8539 726.536 1286.06 2585.66 6108.9 1684.71 4582.13 2239.36 1130.01 3169.89 9642.43 193.631
internal_weight=0 6192.05 24.0786 0.114203 23.9643 6167.97 2045.18 58.1684 1.74217 0.849859 0.428782 0.0873181 0.341464 0.0548677 0.078333 0.286596 0.0550843 0.0101429 0.89231
internal_count=14315879 110345 13649 10271 3378 96696 33221 3692 1684 877 644 272 372 128 147 244 118 101 807
is_linear=0
shrinkage=0.2


Tree=39
num_leaves=20
num_cat=0
split_feature=1 4 4 11 3 7 7 7 4 7 9 7 3 5 9 6 9 7 6
split_gain=2.81937e+06 4.83531e+07 5.39985e+10 2.67313e+10 2.38513e+10 3.26485e+10 1.14086e+10 1.01917e+10 1.01646e+10 5.92039e+09 9.47787e+09 1.41629e+10 5.10856e+09 2.15783e+10 9.69038e+09 1.93742e+10 4.8917e+09 4.73519e+09 6.2063e+09
threshold=716.05500000000018 20.500000000000004 21.500000000000004 1.0000000180025095e-35 8.5000000000000018 1547.0000000000002 9120.0000000000018 597883.00000000012 22.500000000000004 23220.000000000004 61.500000000000007 8248.5000000000018 9.5000000000000018 1.0000000180025095e-35 45.500000000000007 3725.5000000000005 53.500000000000007 104563.50000000001 1775.5000000000002
decision_type=2 2 2 2 2 2 2 2 2 2 2 2 2 2 2 2 2 2 2
left_child=-1 -2 -3 4 6 -6 -4 -8 -5 10 -10 -12 13 -11 -15 17 -14 -16 -19
right_child=1 2 3 8 5 -7 7 -9 9 12 11 -13 16 14 15 -17 -18 18 -20
leaf_value=-0.016009931221338206 -0.26997079605178254 -1.2686043201858792 688148.35285250994 25281.390498476558 69556.744226075243 1579831.1488787904 147922.71745658419 654347.46150010079 126912.44403117006 800922.15620644961 261872.55497690049 1106197.7287125085 241149.00471743901 23109.428133231449 79522.12866071699 813286.51756813179 27402.712776632685 133442.3726554657 557270.00120567007
leaf_weight=474379.33882153576 5199.6957426007903 341.68674475127216 0.0017813024629810053 0.16090872647048171 0.0010983869433402987 0.0011959507446427326 0.036122965520864081 0.0016627256863197262 0.016034701879550643 0.0018446241695060294 0.0034658106620747055 0.0010310997542218219 0.004631157709209569 0.026517545124549052 0.013543434095826472 0.0019026509687379593 0.056928255087840607 0.003633034372269832 0.0022305174213673941
leaf_count=14205534 72686 4438 569 14077 40 1007 2637 548 2721 4278 640 783 610 1753 993 1005 426 447 687
internal_value=0 4.52137 77.3634 80390.9 229878 856805 193525 170207 59009.5 100198 198874 455468 81984.2 129700 103811 204236 43483 144525 294668
internal_weight=0 5541.72 342.021 0.334533 0.0418613 0.00229434 0.039567 0.0377857 0.292672 0.131763 0.0205316 0.00449691 0.111231 0.0496718 0.0478272 0.0213096 0.0615594 0.019407 0.00586355
internal_count=14315879 110345 37659 33221 4801 1047 3754 3185 28420 14343 4144 1423 10199 9163 4885 3132 1036 2127 1134
is_linear=0
shrinkage=0.2


Tree=40
num_leaves=20
num_cat=0
split_feature=3 11 0 6 7 6 2 7 12 9 12 5 9 9 6 2 12 2 6
split_gain=769182 1.46315e+06 8.49952e+06 1.29681e+09 1.33184e+08 1.07482e+09 8.25775e+08 1.90175e+08 1.09395e+08 7.91673e+07 2.76986e+09 2.93848e+08 6.78962e+08 6.71327e+07 3.02784e+07 3.86549e+07 2.28937e+07 3.69183e+08 1.93334e+07
threshold=9.5000000000000018 2.5000000000000004 8.5000000000000018 5271.5000000000009 2120.0000000000005 3499.5000000000005 5.5000000000000009 1313.5000000000002 96.976939419279645 43.500000000000007 39.499875866887159 1.0000000180025095e-35 40.500000000000007 37.500000000000007 1871.5000000000002 1.0000000180025095e-35 85.371588782629814 2.5000000000000004 233.50000000000003
decision_type=2 2 2 2 2 2 2 2 2 2 2 2 2 2 2 2 2 2 2
left_child=-1 2 -2 4 5 7 -7 8 -4 10 -6 13 -13 18 -9 -16 -11 -18 -12
right_child=1 -3 3 -5 9 6 -8 14 -10 16 11 12 -14 -15 15 -17 17 -19 -20
leaf_value=-0.047491202951342411 1.5499870778560929 7.788126198502983 21397.26836386491 -29737.617267289264 -304042.81581876992 -269383.9790100336 -42820.791805514062 14007.409943254395 101452.38097621876 -2.7558745353771945 -2819.8769322288822 -18625.877346818135 -1232.9000916827854 -6571.7358215370405 -3512.027935523497 -49744.242951467022 -700.16785410389809 -79878.771649585571 413.74861241982171
leaf_weight=469738.45868825971 5895.850543312843 1416.3062330450803 0.0015048790588894079 0.058861870505636626 0.0012070660424242643 0.0010535139845267993 0.0016533946778457542 0.0016419645860332732 0.0012498499190167767 83.429044499315253 0.077030438622017861 0.11768446671953814 0.37855802542409833 0.058859909657299814 0.0021069246329481484 0.0011016305869752108 0.058859852668713075 0.0024537121041030554 1.8546813834782383
leaf_count=12864218 2212 559494 6019 194044 52989 12242 3000 1430 2201 144671 21283 150857 31334 59642 427 3804 34387 69275 102350
internal_value=0 2.00781 0.639228 -61.7647 -41.4506 -22769.1 -130998 15752.4 57719.1 -38.7247 -1150.46 -1003.44 -5357.66 82.0587 -8081.54 -19385.5 -5.59503 -3868.82 284.802
internal_weight=0 7398.2 5981.9 86.0476 85.9887 0.0103122 0.00270691 0.00760525 0.00275473 85.9784 2.48802 2.48681 0.496242 1.99057 0.00485052 0.00320856 83.4904 0.0613136 1.93171
internal_count=14315879 1451661 892167 889955 695911 29123 15242 13881 8220 666788 418455 365466 182191 183275 5661 4231 248333 103662 123633
is_linear=0
shrinkage=0.2


Tree=41
num_leaves=20
num_cat=0
split_feature=1 0 0 11 4 5 11 6 7 6 6 4 6 12 4 7 7 1 7
split_gain=1.06453e+06 2.88116e+06 9.62539e+06 3.9875e+07 1.77325e+07 8.55447e+07 1.78044e+09 1.36438e+09 6.44321e+08 2.80853e+08 1.06321e+07 1.44484e+07 9.72505e+06 6.96808e+06 3.9653e+06 6.08165e+06 3.77163e+06 3.65082e+06 2.38265e+06
threshold=5.7150000000000007 6.5000000000000009 8.5000000000000018 3.5000000000000004 12.500000000000002 1.0000000180025095e-35 2.5000000000000004 1871.5000000000002 165014.50000000003 4851.5000000000009 5928.5000000000009 21.500000000000004 2660.5000000000005 63.218321627523714 21.500000000000004 1313.5000000000002 141791.50000000003 2.9850000000000008 1547.0000000000002
decision_type=2 2 2 2 2 2 2 2 2 2 2 2 2 2 2 2 2 2 2
left_child=1 -1 3 4 5 -3 7 8 -7 12 18 -12 -9 -14 -6 -16 -15 -13 -5
right_child=-2 2 -4 10 14 6 -8 9 -10 -11 11 17 13 16 15 -17 -18 -19 -20
leaf_value=-0.52437852921882333 0.069193116829977072 -298.74030889749633 -5.798891922514489 1838.3762153206062 -327.1099071131336 -338448.78274581186 -507.62617570622274 -46793.441484039322 -127552.09924308975 -134191.51726428198 -0.20000645507997869 8190.7436169815892 -39238.205620654386 -18807.639574984485 1237.0035334131371 -1037.5020539714194 -32478.67495099541 18019.875991997054 1.9036697910923708
leaf_weight=25385.416355964386 436575.10260639526 0.74263346877580327 2780.1722860689083 0.02828275439242034 8.699600716674464 0.0010317667669732314 0.18352731914538961 0.0011283680790792408 0.0013218148926742723 0.0012251165228820068 0.0082204339923909187 0.0031742374412715444 0.0012895660522982688 0.0030626178428010409 0.051247735216748747 0.57036030915332958 0.0010961105797226353 0.0028856704011559486 33.166087916193646
leaf_count=1266566 12153757 19252 746787 2112 47505 5657 2090 976 2789 3271 1117 23 1027 1367 204 10328 701 22 50328
internal_value=0 -1.19849 -7.25896 -100.648 -445.322 -1275.02 -5018.34 -86535.8 -220005 -46271.7 5.81562 5461.85 -29893.8 -26393.8 -361.979 -849.983 -22410.9 12871.3 3.46841
internal_weight=0 28209.1 2823.64 43.4662 10.2575 0.936316 0.193683 0.0101554 0.00235358 0.00780178 33.2087 0.0142803 0.00657666 0.00544829 9.32121 0.621608 0.00415873 0.00605991 33.1944
internal_count=14315879 2162122 895556 148769 95167 37130 17878 15788 8446 7342 53602 1162 4071 3095 58037 10532 2068 45 52440
is_linear=0
shrinkage=0.2


Tree=42
num_leaves=20
num_cat=0
split_feature=1 0 1 1 4 0 9 1 1 6 6 0 1 9 12 8 8 12 2
split_gain=933042 1.16125e+10 7.11829e+09 866489 1.89158e+06 3.28246e+06 5.53645e+07 1.7332e+08 1.72565e+08 1.15591e+08 1.46137e+10 1.21034e+08 2.03573e+08 1.53046e+09 4.91958e+08 2.7823e+08 5.14121e+08 9.81409e+08 1.0043e+08
threshold=5.7150000000000007 10.500000000000002 1.405 23.155000000000005 3.5000000000000004 1.5000000000000002 55.500000000000007 8.9250000000000025 14.305000000000001 5038.5000000000009 5374.5000000000009 2.5000000000000004 12.535000000000002 57.500000000000007 82.022315870780275 167.50000000000003 484.50000000000006 50.299300660192166 2.5000000000000004
decision_type=2 2 2 2 2 2 2 2 2 2 2 2 2 2 2 2 2 2 2
left_child=1 -1 -3 4 5 -2 -7 -8 9 11 -11 -9 -13 -14 15 -15 17 -17 -18
right_child=3 2 -4 -5 -6 6 7 8 -10 10 -12 12 13 14 -16 16 18 -19 -20
